digraph Tree {
node [shape=box, style="filled, rounded", color="black", fontname="helvetica"] ;
edge [fontname="helvetica"] ;
0 [label="grid <= -1.11\ngini = 0.94\nsamples = 1564\nvalue = [159, 154, 140, 142, 148, 144, 170, 138, 138, 160\n153, 123, 141, 122, 115, 109, 86, 73, 30, 15, 9\n1]", fillcolor="#fefffe"] ;
1 [label="statusId <= -0.25\ngini = 0.82\nsamples = 285\nvalue = [142, 118, 64, 35, 30, 15, 11, 9, 8, 4, 6, 4, 5\n2, 7, 3, 0, 4, 5, 1, 0, 0]", fillcolor="#fdf6f2"] ;
0 -> 1 [labeldistance=2.5, labelangle=45, headlabel="True"] ;
2 [label="grid <= -1.28\ngini = 0.79\nsamples = 266\nvalue = [142, 118, 64, 35, 30, 15, 11, 7, 5, 4, 2, 0, 3\n0, 2, 0, 0, 1, 1, 0, 0, 0]", fillcolor="#fdf6f0"] ;
1 -> 2 ;
3 [label="raceId <= -1.19\ngini = 0.7\nsamples = 178\nvalue = [121, 81, 25, 15, 7, 4, 7, 3, 2, 0, 2, 0, 3\n0, 2, 0, 0, 1, 1, 0, 0, 0]", fillcolor="#fae5d6"] ;
2 -> 3 ;
4 [label="precipitation <= 1.42\ngini = 0.55\nsamples = 30\nvalue = [28, 16, 1, 1, 2, 0, 0, 0, 0, 0, 0, 0, 0, 0\n0, 0, 0, 0, 0, 0, 0, 0]", fillcolor="#f5d0b5"] ;
3 -> 4 ;
5 [label="raceId <= -1.61\ngini = 0.56\nsamples = 28\nvalue = [25, 16, 1, 1, 2, 0, 0, 0, 0, 0, 0, 0, 0, 0\n0, 0, 0, 0, 0, 0, 0, 0]", fillcolor="#f7d8c2"] ;
4 -> 5 ;
6 [label="constructorId <= 0.05\ngini = 0.63\nsamples = 10\nvalue = [7, 9, 1, 1, 1, 0, 0, 0, 0, 0, 0, 0, 0, 0\n0, 0, 0, 0, 0, 0, 0, 0]", fillcolor="#fbf2de"] ;
5 -> 6 ;
7 [label="circuitId <= -0.81\ngini = 0.67\nsamples = 3\nvalue = [0, 0, 1, 1, 1, 0, 0, 0, 0, 0, 0, 0, 0, 0\n0, 0, 0, 0, 0, 0, 0, 0]", fillcolor="#ffffff"] ;
6 -> 7 ;
8 [label="gini = 0.0\nsamples = 1\nvalue = [0, 0, 1, 0, 0, 0, 0, 0, 0, 0, 0, 0, 0, 0\n0, 0, 0, 0, 0, 0, 0, 0]", fillcolor="#e5dc39"] ;
7 -> 8 ;
9 [label="raceId <= -1.68\ngini = 0.5\nsamples = 2\nvalue = [0, 0, 0, 1, 1, 0, 0, 0, 0, 0, 0, 0, 0, 0\n0, 0, 0, 0, 0, 0, 0, 0]", fillcolor="#ffffff"] ;
7 -> 9 ;
10 [label="gini = 0.0\nsamples = 1\nvalue = [0, 0, 0, 1, 0, 0, 0, 0, 0, 0, 0, 0, 0, 0\n0, 0, 0, 0, 0, 0, 0, 0]", fillcolor="#bde539"] ;
9 -> 10 ;
11 [label="gini = 0.0\nsamples = 1\nvalue = [0, 0, 0, 0, 1, 0, 0, 0, 0, 0, 0, 0, 0, 0\n0, 0, 0, 0, 0, 0, 0, 0]", fillcolor="#8fe539"] ;
9 -> 11 ;
12 [label="raceId <= -1.79\ngini = 0.49\nsamples = 7\nvalue = [7, 9, 0, 0, 0, 0, 0, 0, 0, 0, 0, 0, 0, 0\n0, 0, 0, 0, 0, 0, 0, 0]", fillcolor="#f9edd3"] ;
6 -> 12 ;
13 [label="gini = 0.0\nsamples = 1\nvalue = [3, 0, 0, 0, 0, 0, 0, 0, 0, 0, 0, 0, 0, 0\n0, 0, 0, 0, 0, 0, 0, 0]", fillcolor="#e58139"] ;
12 -> 13 ;
14 [label="raceId <= -1.64\ngini = 0.43\nsamples = 6\nvalue = [4, 9, 0, 0, 0, 0, 0, 0, 0, 0, 0, 0, 0, 0\n0, 0, 0, 0, 0, 0, 0, 0]", fillcolor="#f1d291"] ;
12 -> 14 ;
15 [label="temp <= 0.06\ngini = 0.49\nsamples = 5\nvalue = [4, 5, 0, 0, 0, 0, 0, 0, 0, 0, 0, 0, 0, 0\n0, 0, 0, 0, 0, 0, 0, 0]", fillcolor="#faefd7"] ;
14 -> 15 ;
16 [label="gini = 0.38\nsamples = 2\nvalue = [1, 3, 0, 0, 0, 0, 0, 0, 0, 0, 0, 0, 0, 0\n0, 0, 0, 0, 0, 0, 0, 0]", fillcolor="#eec97b"] ;
15 -> 16 ;
17 [label="gini = 0.48\nsamples = 3\nvalue = [3, 2, 0, 0, 0, 0, 0, 0, 0, 0, 0, 0, 0, 0\n0, 0, 0, 0, 0, 0, 0, 0]", fillcolor="#f6d5bd"] ;
15 -> 17 ;
18 [label="gini = 0.0\nsamples = 1\nvalue = [0, 4, 0, 0, 0, 0, 0, 0, 0, 0, 0, 0, 0, 0\n0, 0, 0, 0, 0, 0, 0, 0]", fillcolor="#e5ae39"] ;
14 -> 18 ;
19 [label="constructorId <= 0.03\ngini = 0.45\nsamples = 18\nvalue = [18, 7, 0, 0, 1, 0, 0, 0, 0, 0, 0, 0, 0, 0\n0, 0, 0, 0, 0, 0, 0, 0]", fillcolor="#f0b68c"] ;
5 -> 19 ;
20 [label="circuitId <= -0.93\ngini = 0.5\nsamples = 2\nvalue = [1, 0, 0, 0, 1, 0, 0, 0, 0, 0, 0, 0, 0, 0\n0, 0, 0, 0, 0, 0, 0, 0]", fillcolor="#ffffff"] ;
19 -> 20 ;
21 [label="gini = 0.0\nsamples = 1\nvalue = [1, 0, 0, 0, 0, 0, 0, 0, 0, 0, 0, 0, 0, 0\n0, 0, 0, 0, 0, 0, 0, 0]", fillcolor="#e58139"] ;
20 -> 21 ;
22 [label="gini = 0.0\nsamples = 1\nvalue = [0, 0, 0, 0, 1, 0, 0, 0, 0, 0, 0, 0, 0, 0\n0, 0, 0, 0, 0, 0, 0, 0]", fillcolor="#8fe539"] ;
20 -> 22 ;
23 [label="precipitation <= -0.26\ngini = 0.41\nsamples = 16\nvalue = [17, 7, 0, 0, 0, 0, 0, 0, 0, 0, 0, 0, 0, 0\n0, 0, 0, 0, 0, 0, 0, 0]", fillcolor="#f0b58b"] ;
19 -> 23 ;
24 [label="grid <= -1.45\ngini = 0.32\nsamples = 13\nvalue = [16, 4, 0, 0, 0, 0, 0, 0, 0, 0, 0, 0, 0, 0\n0, 0, 0, 0, 0, 0, 0, 0]", fillcolor="#eca06a"] ;
23 -> 24 ;
25 [label="gini = 0.0\nsamples = 7\nvalue = [13, 0, 0, 0, 0, 0, 0, 0, 0, 0, 0, 0, 0, 0\n0, 0, 0, 0, 0, 0, 0, 0]", fillcolor="#e58139"] ;
24 -> 25 ;
26 [label="circuitId <= -0.19\ngini = 0.49\nsamples = 6\nvalue = [3, 4, 0, 0, 0, 0, 0, 0, 0, 0, 0, 0, 0, 0\n0, 0, 0, 0, 0, 0, 0, 0]", fillcolor="#f8ebce"] ;
24 -> 26 ;
27 [label="gini = 0.32\nsamples = 4\nvalue = [1, 4, 0, 0, 0, 0, 0, 0, 0, 0, 0, 0, 0, 0\n0, 0, 0, 0, 0, 0, 0, 0]", fillcolor="#ecc26a"] ;
26 -> 27 ;
28 [label="gini = 0.0\nsamples = 2\nvalue = [2, 0, 0, 0, 0, 0, 0, 0, 0, 0, 0, 0, 0, 0\n0, 0, 0, 0, 0, 0, 0, 0]", fillcolor="#e58139"] ;
26 -> 28 ;
29 [label="driverId <= -1.64\ngini = 0.38\nsamples = 3\nvalue = [1, 3, 0, 0, 0, 0, 0, 0, 0, 0, 0, 0, 0, 0\n0, 0, 0, 0, 0, 0, 0, 0]", fillcolor="#eec97b"] ;
23 -> 29 ;
30 [label="gini = 0.0\nsamples = 2\nvalue = [0, 3, 0, 0, 0, 0, 0, 0, 0, 0, 0, 0, 0, 0\n0, 0, 0, 0, 0, 0, 0, 0]", fillcolor="#e5ae39"] ;
29 -> 30 ;
31 [label="gini = 0.0\nsamples = 1\nvalue = [1, 0, 0, 0, 0, 0, 0, 0, 0, 0, 0, 0, 0, 0\n0, 0, 0, 0, 0, 0, 0, 0]", fillcolor="#e58139"] ;
29 -> 31 ;
32 [label="gini = 0.0\nsamples = 2\nvalue = [3, 0, 0, 0, 0, 0, 0, 0, 0, 0, 0, 0, 0, 0\n0, 0, 0, 0, 0, 0, 0, 0]", fillcolor="#e58139"] ;
4 -> 32 ;
33 [label="constructorId <= -0.69\ngini = 0.73\nsamples = 148\nvalue = [93, 65, 24, 14, 5, 4, 7, 3, 2, 0, 2, 0, 3, 0\n2, 0, 0, 1, 1, 0, 0, 0]", fillcolor="#fae9dd"] ;
3 -> 33 ;
34 [label="temp <= 1.22\ngini = 0.79\nsamples = 37\nvalue = [16, 20, 13, 8, 1, 2, 2, 2, 0, 0, 0, 0, 1, 0\n0, 0, 0, 0, 0, 0, 0, 0]", fillcolor="#fdf8ef"] ;
33 -> 34 ;
35 [label="driverId <= -1.61\ngini = 0.81\nsamples = 33\nvalue = [14, 11, 13, 8, 1, 2, 2, 2, 0, 0, 0, 0, 1, 0\n0, 0, 0, 0, 0, 0, 0, 0]", fillcolor="#fefcfa"] ;
34 -> 35 ;
36 [label="grid <= -1.45\ngini = 0.4\nsamples = 6\nvalue = [0, 3, 8, 0, 0, 0, 0, 0, 0, 0, 0, 0, 0, 0\n0, 0, 0, 0, 0, 0, 0, 0]", fillcolor="#efe983"] ;
35 -> 36 ;
37 [label="gini = 0.0\nsamples = 2\nvalue = [0, 3, 0, 0, 0, 0, 0, 0, 0, 0, 0, 0, 0, 0\n0, 0, 0, 0, 0, 0, 0, 0]", fillcolor="#e5ae39"] ;
36 -> 37 ;
38 [label="gini = 0.0\nsamples = 4\nvalue = [0, 0, 8, 0, 0, 0, 0, 0, 0, 0, 0, 0, 0, 0\n0, 0, 0, 0, 0, 0, 0, 0]", fillcolor="#e5dc39"] ;
36 -> 38 ;
39 [label="temp <= -1.31\ngini = 0.8\nsamples = 27\nvalue = [14, 8, 5, 8, 1, 2, 2, 2, 0, 0, 0, 0, 1, 0\n0, 0, 0, 0, 0, 0, 0, 0]", fillcolor="#fbe9dd"] ;
35 -> 39 ;
40 [label="temp <= -1.56\ngini = 0.5\nsamples = 2\nvalue = [0, 0, 0, 0, 0, 2, 0, 2, 0, 0, 0, 0, 0, 0\n0, 0, 0, 0, 0, 0, 0, 0]", fillcolor="#ffffff"] ;
39 -> 40 ;
41 [label="gini = 0.0\nsamples = 1\nvalue = [0, 0, 0, 0, 0, 0, 0, 2, 0, 0, 0, 0, 0, 0\n0, 0, 0, 0, 0, 0, 0, 0]", fillcolor="#39e56f"] ;
40 -> 41 ;
42 [label="gini = 0.0\nsamples = 1\nvalue = [0, 0, 0, 0, 0, 2, 0, 0, 0, 0, 0, 0, 0, 0\n0, 0, 0, 0, 0, 0, 0, 0]", fillcolor="#61e539"] ;
40 -> 42 ;
43 [label="precipitation <= 2.64\ngini = 0.77\nsamples = 25\nvalue = [14, 8, 5, 8, 1, 0, 2, 0, 0, 0, 0, 0, 1, 0\n0, 0, 0, 0, 0, 0, 0, 0]", fillcolor="#fae7d9"] ;
39 -> 43 ;
44 [label="temp <= 1.1\ngini = 0.78\nsamples = 24\nvalue = [11, 8, 5, 8, 1, 0, 2, 0, 0, 0, 0, 0, 1, 0\n0, 0, 0, 0, 0, 0, 0, 0]", fillcolor="#fcf2ea"] ;
43 -> 44 ;
45 [label="gini = 0.76\nsamples = 22\nvalue = [11, 8, 3, 8, 0, 0, 2, 0, 0, 0, 0, 0, 1, 0\n0, 0, 0, 0, 0, 0, 0, 0]", fillcolor="#fcf0e7"] ;
44 -> 45 ;
46 [label="gini = 0.44\nsamples = 2\nvalue = [0, 0, 2, 0, 1, 0, 0, 0, 0, 0, 0, 0, 0, 0\n0, 0, 0, 0, 0, 0, 0, 0]", fillcolor="#f2ee9c"] ;
44 -> 46 ;
47 [label="gini = 0.0\nsamples = 1\nvalue = [3, 0, 0, 0, 0, 0, 0, 0, 0, 0, 0, 0, 0, 0\n0, 0, 0, 0, 0, 0, 0, 0]", fillcolor="#e58139"] ;
43 -> 47 ;
48 [label="driverId <= -0.46\ngini = 0.3\nsamples = 4\nvalue = [2, 9, 0, 0, 0, 0, 0, 0, 0, 0, 0, 0, 0, 0\n0, 0, 0, 0, 0, 0, 0, 0]", fillcolor="#ebc065"] ;
34 -> 48 ;
49 [label="gini = 0.0\nsamples = 1\nvalue = [2, 0, 0, 0, 0, 0, 0, 0, 0, 0, 0, 0, 0, 0\n0, 0, 0, 0, 0, 0, 0, 0]", fillcolor="#e58139"] ;
48 -> 49 ;
50 [label="gini = 0.0\nsamples = 3\nvalue = [0, 9, 0, 0, 0, 0, 0, 0, 0, 0, 0, 0, 0, 0\n0, 0, 0, 0, 0, 0, 0, 0]", fillcolor="#e5ae39"] ;
48 -> 50 ;
51 [label="temp <= -0.84\ngini = 0.68\nsamples = 111\nvalue = [77, 45, 11, 6, 4, 2, 5, 1, 2, 0, 2, 0, 2, 0\n2, 0, 0, 1, 1, 0, 0, 0]", fillcolor="#f8dcc8"] ;
33 -> 51 ;
52 [label="grid <= -1.45\ngini = 0.62\nsamples = 28\nvalue = [22, 3, 3, 4, 2, 0, 1, 0, 0, 0, 0, 0, 0, 0\n0, 0, 0, 1, 1, 0, 0, 0]", fillcolor="#f1ba93"] ;
51 -> 52 ;
53 [label="grid <= -1.61\ngini = 0.34\nsamples = 15\nvalue = [16, 2, 0, 0, 0, 0, 0, 0, 0, 0, 0, 0, 0, 0\n0, 0, 0, 1, 1, 0, 0, 0]", fillcolor="#eb9d65"] ;
52 -> 53 ;
54 [label="driverId <= -0.52\ngini = 0.5\nsamples = 2\nvalue = [0, 0, 0, 0, 0, 0, 0, 0, 0, 0, 0, 0, 0, 0\n0, 0, 0, 1, 1, 0, 0, 0]", fillcolor="#ffffff"] ;
53 -> 54 ;
55 [label="gini = 0.0\nsamples = 1\nvalue = [0, 0, 0, 0, 0, 0, 0, 0, 0, 0, 0, 0, 0, 0\n0, 0, 0, 1, 0, 0, 0, 0]", fillcolor="#e539dc"] ;
54 -> 55 ;
56 [label="gini = 0.0\nsamples = 1\nvalue = [0, 0, 0, 0, 0, 0, 0, 0, 0, 0, 0, 0, 0, 0\n0, 0, 0, 0, 1, 0, 0, 0]", fillcolor="#e539ae"] ;
54 -> 56 ;
57 [label="circuitId <= -0.93\ngini = 0.2\nsamples = 13\nvalue = [16, 2, 0, 0, 0, 0, 0, 0, 0, 0, 0, 0, 0, 0\n0, 0, 0, 0, 0, 0, 0, 0]", fillcolor="#e89152"] ;
53 -> 57 ;
58 [label="gini = 0.0\nsamples = 1\nvalue = [0, 2, 0, 0, 0, 0, 0, 0, 0, 0, 0, 0, 0, 0\n0, 0, 0, 0, 0, 0, 0, 0]", fillcolor="#e5ae39"] ;
57 -> 58 ;
59 [label="gini = 0.0\nsamples = 12\nvalue = [16, 0, 0, 0, 0, 0, 0, 0, 0, 0, 0, 0, 0, 0\n0, 0, 0, 0, 0, 0, 0, 0]", fillcolor="#e58139"] ;
57 -> 59 ;
60 [label="precipitation <= -0.47\ngini = 0.77\nsamples = 13\nvalue = [6, 1, 3, 4, 2, 0, 1, 0, 0, 0, 0, 0, 0, 0\n0, 0, 0, 0, 0, 0, 0, 0]", fillcolor="#fbece1"] ;
52 -> 60 ;
61 [label="constructorId <= 0.05\ngini = 0.32\nsamples = 5\nvalue = [4, 0, 1, 0, 0, 0, 0, 0, 0, 0, 0, 0, 0, 0\n0, 0, 0, 0, 0, 0, 0, 0]", fillcolor="#eca06a"] ;
60 -> 61 ;
62 [label="temp <= -0.91\ngini = 0.5\nsamples = 2\nvalue = [1, 0, 1, 0, 0, 0, 0, 0, 0, 0, 0, 0, 0, 0\n0, 0, 0, 0, 0, 0, 0, 0]", fillcolor="#ffffff"] ;
61 -> 62 ;
63 [label="gini = 0.0\nsamples = 1\nvalue = [1, 0, 0, 0, 0, 0, 0, 0, 0, 0, 0, 0, 0, 0\n0, 0, 0, 0, 0, 0, 0, 0]", fillcolor="#e58139"] ;
62 -> 63 ;
64 [label="gini = 0.0\nsamples = 1\nvalue = [0, 0, 1, 0, 0, 0, 0, 0, 0, 0, 0, 0, 0, 0\n0, 0, 0, 0, 0, 0, 0, 0]", fillcolor="#e5dc39"] ;
62 -> 64 ;
65 [label="gini = 0.0\nsamples = 3\nvalue = [3, 0, 0, 0, 0, 0, 0, 0, 0, 0, 0, 0, 0, 0\n0, 0, 0, 0, 0, 0, 0, 0]", fillcolor="#e58139"] ;
61 -> 65 ;
66 [label="circuitId <= -0.41\ngini = 0.79\nsamples = 8\nvalue = [2, 1, 2, 4, 2, 0, 1, 0, 0, 0, 0, 0, 0, 0\n0, 0, 0, 0, 0, 0, 0, 0]", fillcolor="#f2fad7"] ;
60 -> 66 ;
67 [label="circuitId <= -0.71\ngini = 0.64\nsamples = 3\nvalue = [0, 0, 2, 0, 2, 0, 1, 0, 0, 0, 0, 0, 0, 0\n0, 0, 0, 0, 0, 0, 0, 0]", fillcolor="#ffffff"] ;
66 -> 67 ;
68 [label="gini = 0.0\nsamples = 1\nvalue = [0, 0, 0, 0, 2, 0, 0, 0, 0, 0, 0, 0, 0, 0\n0, 0, 0, 0, 0, 0, 0, 0]", fillcolor="#8fe539"] ;
67 -> 68 ;
69 [label="gini = 0.44\nsamples = 2\nvalue = [0, 0, 2, 0, 0, 0, 1, 0, 0, 0, 0, 0, 0, 0\n0, 0, 0, 0, 0, 0, 0, 0]", fillcolor="#f2ee9c"] ;
67 -> 69 ;
70 [label="constructorId <= 0.05\ngini = 0.57\nsamples = 5\nvalue = [2, 1, 0, 4, 0, 0, 0, 0, 0, 0, 0, 0, 0, 0\n0, 0, 0, 0, 0, 0, 0, 0]", fillcolor="#e5f5b0"] ;
66 -> 70 ;
71 [label="gini = 0.44\nsamples = 2\nvalue = [1, 0, 0, 2, 0, 0, 0, 0, 0, 0, 0, 0, 0, 0\n0, 0, 0, 0, 0, 0, 0, 0]", fillcolor="#def29c"] ;
70 -> 71 ;
72 [label="gini = 0.62\nsamples = 3\nvalue = [1, 1, 0, 2, 0, 0, 0, 0, 0, 0, 0, 0, 0, 0\n0, 0, 0, 0, 0, 0, 0, 0]", fillcolor="#e9f6bd"] ;
70 -> 72 ;
73 [label="driverId <= 0.68\ngini = 0.68\nsamples = 83\nvalue = [55, 42, 8, 2, 2, 2, 4, 1, 2, 0, 2, 0, 2, 0\n2, 0, 0, 0, 0, 0, 0, 0]", fillcolor="#fbebe0"] ;
51 -> 73 ;
74 [label="raceId <= -0.85\ngini = 0.67\nsamples = 82\nvalue = [55, 42, 8, 2, 2, 2, 4, 1, 2, 0, 2, 0, 0, 0\n2, 0, 0, 0, 0, 0, 0, 0]", fillcolor="#fbebdf"] ;
73 -> 74 ;
75 [label="raceId <= -1.16\ngini = 0.62\nsamples = 10\nvalue = [1, 9, 0, 0, 0, 2, 3, 1, 0, 0, 0, 0, 0, 0\n0, 0, 0, 0, 0, 0, 0, 0]", fillcolor="#f3daa4"] ;
74 -> 75 ;
76 [label="grid <= -1.45\ngini = 0.44\nsamples = 2\nvalue = [0, 0, 0, 0, 0, 2, 0, 1, 0, 0, 0, 0, 0, 0\n0, 0, 0, 0, 0, 0, 0, 0]", fillcolor="#b0f29c"] ;
75 -> 76 ;
77 [label="gini = 0.0\nsamples = 1\nvalue = [0, 0, 0, 0, 0, 2, 0, 0, 0, 0, 0, 0, 0, 0\n0, 0, 0, 0, 0, 0, 0, 0]", fillcolor="#61e539"] ;
76 -> 77 ;
78 [label="gini = 0.0\nsamples = 1\nvalue = [0, 0, 0, 0, 0, 0, 0, 1, 0, 0, 0, 0, 0, 0\n0, 0, 0, 0, 0, 0, 0, 0]", fillcolor="#39e56f"] ;
76 -> 78 ;
79 [label="circuitId <= -0.65\ngini = 0.46\nsamples = 8\nvalue = [1, 9, 0, 0, 0, 0, 3, 0, 0, 0, 0, 0, 0, 0\n0, 0, 0, 0, 0, 0, 0, 0]", fillcolor="#efce88"] ;
75 -> 79 ;
80 [label="gini = 0.61\nsamples = 4\nvalue = [1, 3, 0, 0, 0, 0, 3, 0, 0, 0, 0, 0, 0, 0\n0, 0, 0, 0, 0, 0, 0, 0]", fillcolor="#ffffff"] ;
79 -> 80 ;
81 [label="gini = 0.0\nsamples = 4\nvalue = [0, 6, 0, 0, 0, 0, 0, 0, 0, 0, 0, 0, 0, 0\n0, 0, 0, 0, 0, 0, 0, 0]", fillcolor="#e5ae39"] ;
79 -> 81 ;
82 [label="precipitation <= -0.46\ngini = 0.64\nsamples = 72\nvalue = [54, 33, 8, 2, 2, 0, 1, 0, 2, 0, 2, 0, 0, 0\n2, 0, 0, 0, 0, 0, 0, 0]", fillcolor="#f8dbc6"] ;
74 -> 82 ;
83 [label="temp <= 1.57\ngini = 0.65\nsamples = 32\nvalue = [20, 23, 6, 0, 0, 0, 0, 0, 1, 0, 1, 0, 0, 0\n2, 0, 0, 0, 0, 0, 0, 0]", fillcolor="#fdf8ed"] ;
82 -> 83 ;
84 [label="gini = 0.66\nsamples = 30\nvalue = [16, 23, 6, 0, 0, 0, 0, 0, 1, 0, 1, 0, 0, 0\n2, 0, 0, 0, 0, 0, 0, 0]", fillcolor="#f9eed5"] ;
83 -> 84 ;
85 [label="gini = 0.0\nsamples = 2\nvalue = [4, 0, 0, 0, 0, 0, 0, 0, 0, 0, 0, 0, 0, 0\n0, 0, 0, 0, 0, 0, 0, 0]", fillcolor="#e58139"] ;
83 -> 85 ;
86 [label="driverId <= 0.64\ngini = 0.55\nsamples = 40\nvalue = [34, 10, 2, 2, 2, 0, 1, 0, 1, 0, 1, 0, 0, 0\n0, 0, 0, 0, 0, 0, 0, 0]", fillcolor="#f0b990"] ;
82 -> 86 ;
87 [label="gini = 0.54\nsamples = 38\nvalue = [33, 10, 2, 2, 2, 0, 1, 0, 1, 0, 0, 0, 0, 0\n0, 0, 0, 0, 0, 0, 0, 0]", fillcolor="#f0b890"] ;
86 -> 87 ;
88 [label="gini = 0.5\nsamples = 2\nvalue = [1, 0, 0, 0, 0, 0, 0, 0, 0, 0, 1, 0, 0, 0\n0, 0, 0, 0, 0, 0, 0, 0]", fillcolor="#ffffff"] ;
86 -> 88 ;
89 [label="gini = 0.0\nsamples = 1\nvalue = [0, 0, 0, 0, 0, 0, 0, 0, 0, 0, 0, 0, 2, 0\n0, 0, 0, 0, 0, 0, 0, 0]", fillcolor="#396fe5"] ;
73 -> 89 ;
90 [label="raceId <= 0.34\ngini = 0.84\nsamples = 88\nvalue = [21, 37, 39, 20, 23, 11, 4, 4, 3, 4, 0, 0, 0\n0, 0, 0, 0, 0, 0, 0, 0, 0]", fillcolor="#fffefc"] ;
2 -> 90 ;
91 [label="circuitId <= -0.39\ngini = 0.81\nsamples = 57\nvalue = [10, 13, 32, 16, 21, 9, 1, 3, 0, 0, 0, 0, 0\n0, 0, 0, 0, 0, 0, 0, 0, 0]", fillcolor="#fcfae5"] ;
90 -> 91 ;
92 [label="temp <= -0.88\ngini = 0.8\nsamples = 32\nvalue = [9, 10, 18, 15, 1, 4, 1, 3, 0, 0, 0, 0, 0, 0\n0, 0, 0, 0, 0, 0, 0, 0]", fillcolor="#fdfdf2"] ;
91 -> 92 ;
93 [label="raceId <= -0.07\ngini = 0.68\nsamples = 6\nvalue = [0, 5, 0, 6, 1, 3, 0, 0, 0, 0, 0, 0, 0, 0\n0, 0, 0, 0, 0, 0, 0, 0]", fillcolor="#f8fceb"] ;
92 -> 93 ;
94 [label="precipitation <= 0.07\ngini = 0.57\nsamples = 5\nvalue = [0, 5, 0, 6, 1, 0, 0, 0, 0, 0, 0, 0, 0, 0\n0, 0, 0, 0, 0, 0, 0, 0]", fillcolor="#f6fbe3"] ;
93 -> 94 ;
95 [label="gini = 0.0\nsamples = 2\nvalue = [0, 0, 0, 4, 0, 0, 0, 0, 0, 0, 0, 0, 0, 0\n0, 0, 0, 0, 0, 0, 0, 0]", fillcolor="#bde539"] ;
94 -> 95 ;
96 [label="precipitation <= 0.52\ngini = 0.53\nsamples = 3\nvalue = [0, 5, 0, 2, 1, 0, 0, 0, 0, 0, 0, 0, 0, 0\n0, 0, 0, 0, 0, 0, 0, 0]", fillcolor="#f2d69c"] ;
94 -> 96 ;
97 [label="gini = 0.0\nsamples = 1\nvalue = [0, 5, 0, 0, 0, 0, 0, 0, 0, 0, 0, 0, 0, 0\n0, 0, 0, 0, 0, 0, 0, 0]", fillcolor="#e5ae39"] ;
96 -> 97 ;
98 [label="raceId <= -0.88\ngini = 0.44\nsamples = 2\nvalue = [0, 0, 0, 2, 1, 0, 0, 0, 0, 0, 0, 0, 0, 0\n0, 0, 0, 0, 0, 0, 0, 0]", fillcolor="#def29c"] ;
96 -> 98 ;
99 [label="gini = 0.0\nsamples = 1\nvalue = [0, 0, 0, 0, 1, 0, 0, 0, 0, 0, 0, 0, 0, 0\n0, 0, 0, 0, 0, 0, 0, 0]", fillcolor="#8fe539"] ;
98 -> 99 ;
100 [label="gini = 0.0\nsamples = 1\nvalue = [0, 0, 0, 2, 0, 0, 0, 0, 0, 0, 0, 0, 0, 0\n0, 0, 0, 0, 0, 0, 0, 0]", fillcolor="#bde539"] ;
98 -> 100 ;
101 [label="gini = 0.0\nsamples = 1\nvalue = [0, 0, 0, 0, 0, 3, 0, 0, 0, 0, 0, 0, 0, 0\n0, 0, 0, 0, 0, 0, 0, 0]", fillcolor="#61e539"] ;
93 -> 101 ;
102 [label="circuitId <= -0.89\ngini = 0.75\nsamples = 26\nvalue = [9, 5, 18, 9, 0, 1, 1, 3, 0, 0, 0, 0, 0, 0\n0, 0, 0, 0, 0, 0, 0, 0]", fillcolor="#f9f6cf"] ;
92 -> 102 ;
103 [label="temp <= 0.82\ngini = 0.7\nsamples = 9\nvalue = [7, 3, 2, 1, 0, 0, 0, 2, 0, 0, 0, 0, 0, 0\n0, 0, 0, 0, 0, 0, 0, 0]", fillcolor="#f6d5bd"] ;
102 -> 103 ;
104 [label="driverId <= -1.61\ngini = 0.72\nsamples = 5\nvalue = [3, 0, 2, 1, 0, 0, 0, 2, 0, 0, 0, 0, 0, 0\n0, 0, 0, 0, 0, 0, 0, 0]", fillcolor="#fbeade"] ;
103 -> 104 ;
105 [label="gini = 0.0\nsamples = 1\nvalue = [3, 0, 0, 0, 0, 0, 0, 0, 0, 0, 0, 0, 0, 0\n0, 0, 0, 0, 0, 0, 0, 0]", fillcolor="#e58139"] ;
104 -> 105 ;
106 [label="precipitation <= -0.27\ngini = 0.64\nsamples = 4\nvalue = [0, 0, 2, 1, 0, 0, 0, 2, 0, 0, 0, 0, 0, 0\n0, 0, 0, 0, 0, 0, 0, 0]", fillcolor="#ffffff"] ;
104 -> 106 ;
107 [label="gini = 0.62\nsamples = 3\nvalue = [0, 0, 1, 1, 0, 0, 0, 2, 0, 0, 0, 0, 0, 0\n0, 0, 0, 0, 0, 0, 0, 0]", fillcolor="#bdf6cf"] ;
106 -> 107 ;
108 [label="gini = 0.0\nsamples = 1\nvalue = [0, 0, 1, 0, 0, 0, 0, 0, 0, 0, 0, 0, 0, 0\n0, 0, 0, 0, 0, 0, 0, 0]", fillcolor="#e5dc39"] ;
106 -> 108 ;
109 [label="constructorId <= -0.69\ngini = 0.49\nsamples = 4\nvalue = [4, 3, 0, 0, 0, 0, 0, 0, 0, 0, 0, 0, 0, 0\n0, 0, 0, 0, 0, 0, 0, 0]", fillcolor="#f8e0ce"] ;
103 -> 109 ;
110 [label="gini = 0.0\nsamples = 1\nvalue = [2, 0, 0, 0, 0, 0, 0, 0, 0, 0, 0, 0, 0, 0\n0, 0, 0, 0, 0, 0, 0, 0]", fillcolor="#e58139"] ;
109 -> 110 ;
111 [label="constructorId <= 0.05\ngini = 0.48\nsamples = 3\nvalue = [2, 3, 0, 0, 0, 0, 0, 0, 0, 0, 0, 0, 0, 0\n0, 0, 0, 0, 0, 0, 0, 0]", fillcolor="#f6e4bd"] ;
109 -> 111 ;
112 [label="gini = 0.0\nsamples = 1\nvalue = [0, 1, 0, 0, 0, 0, 0, 0, 0, 0, 0, 0, 0, 0\n0, 0, 0, 0, 0, 0, 0, 0]", fillcolor="#e5ae39"] ;
111 -> 112 ;
113 [label="gini = 0.5\nsamples = 2\nvalue = [2, 2, 0, 0, 0, 0, 0, 0, 0, 0, 0, 0, 0, 0\n0, 0, 0, 0, 0, 0, 0, 0]", fillcolor="#ffffff"] ;
111 -> 113 ;
114 [label="driverId <= -1.6\ngini = 0.66\nsamples = 17\nvalue = [2, 2, 16, 8, 0, 1, 1, 1, 0, 0, 0, 0, 0, 0\n0, 0, 0, 0, 0, 0, 0, 0]", fillcolor="#f6f3ba"] ;
102 -> 114 ;
115 [label="temp <= -0.44\ngini = 0.44\nsamples = 3\nvalue = [2, 0, 0, 4, 0, 0, 0, 0, 0, 0, 0, 0, 0, 0\n0, 0, 0, 0, 0, 0, 0, 0]", fillcolor="#def29c"] ;
114 -> 115 ;
116 [label="gini = 0.0\nsamples = 2\nvalue = [0, 0, 0, 4, 0, 0, 0, 0, 0, 0, 0, 0, 0, 0\n0, 0, 0, 0, 0, 0, 0, 0]", fillcolor="#bde539"] ;
115 -> 116 ;
117 [label="gini = 0.0\nsamples = 1\nvalue = [2, 0, 0, 0, 0, 0, 0, 0, 0, 0, 0, 0, 0, 0\n0, 0, 0, 0, 0, 0, 0, 0]", fillcolor="#e58139"] ;
115 -> 117 ;
118 [label="driverId <= 0.6\ngini = 0.55\nsamples = 14\nvalue = [0, 2, 16, 4, 0, 1, 1, 1, 0, 0, 0, 0, 0, 0\n0, 0, 0, 0, 0, 0, 0, 0]", fillcolor="#f0eb8e"] ;
114 -> 118 ;
119 [label="circuitId <= -0.45\ngini = 0.36\nsamples = 8\nvalue = [0, 2, 11, 0, 0, 0, 1, 0, 0, 0, 0, 0, 0, 0\n0, 0, 0, 0, 0, 0, 0, 0]", fillcolor="#ece56b"] ;
118 -> 119 ;
120 [label="gini = 0.17\nsamples = 6\nvalue = [0, 0, 10, 0, 0, 0, 1, 0, 0, 0, 0, 0, 0, 0\n0, 0, 0, 0, 0, 0, 0, 0]", fillcolor="#e8e04d"] ;
119 -> 120 ;
121 [label="gini = 0.44\nsamples = 2\nvalue = [0, 2, 1, 0, 0, 0, 0, 0, 0, 0, 0, 0, 0, 0\n0, 0, 0, 0, 0, 0, 0, 0]", fillcolor="#f2d69c"] ;
119 -> 121 ;
122 [label="raceId <= -0.04\ngini = 0.64\nsamples = 6\nvalue = [0, 0, 5, 4, 0, 1, 0, 1, 0, 0, 0, 0, 0, 0\n0, 0, 0, 0, 0, 0, 0, 0]", fillcolor="#fbfae3"] ;
118 -> 122 ;
123 [label="gini = 0.5\nsamples = 4\nvalue = [0, 0, 0, 4, 0, 1, 0, 1, 0, 0, 0, 0, 0, 0\n0, 0, 0, 0, 0, 0, 0, 0]", fillcolor="#d7ef88"] ;
122 -> 123 ;
124 [label="gini = 0.0\nsamples = 2\nvalue = [0, 0, 5, 0, 0, 0, 0, 0, 0, 0, 0, 0, 0, 0\n0, 0, 0, 0, 0, 0, 0, 0]", fillcolor="#e5dc39"] ;
122 -> 124 ;
125 [label="circuitId <= -0.11\ngini = 0.67\nsamples = 25\nvalue = [1, 3, 14, 1, 20, 5, 0, 0, 0, 0, 0, 0, 0, 0\n0, 0, 0, 0, 0, 0, 0, 0]", fillcolor="#e9fad7"] ;
91 -> 125 ;
126 [label="precipitation <= -0.17\ngini = 0.66\nsamples = 12\nvalue = [0, 2, 10, 0, 6, 3, 0, 0, 0, 0, 0, 0, 0, 0\n0, 0, 0, 0, 0, 0, 0, 0]", fillcolor="#f8f6ca"] ;
125 -> 126 ;
127 [label="circuitId <= -0.33\ngini = 0.38\nsamples = 7\nvalue = [0, 2, 10, 0, 1, 0, 0, 0, 0, 0, 0, 0, 0, 0\n0, 0, 0, 0, 0, 0, 0, 0]", fillcolor="#ece66f"] ;
126 -> 127 ;
128 [label="temp <= -1.56\ngini = 0.44\nsamples = 2\nvalue = [0, 2, 1, 0, 0, 0, 0, 0, 0, 0, 0, 0, 0, 0\n0, 0, 0, 0, 0, 0, 0, 0]", fillcolor="#f2d69c"] ;
127 -> 128 ;
129 [label="gini = 0.0\nsamples = 1\nvalue = [0, 2, 0, 0, 0, 0, 0, 0, 0, 0, 0, 0, 0, 0\n0, 0, 0, 0, 0, 0, 0, 0]", fillcolor="#e5ae39"] ;
128 -> 129 ;
130 [label="gini = 0.0\nsamples = 1\nvalue = [0, 0, 1, 0, 0, 0, 0, 0, 0, 0, 0, 0, 0, 0\n0, 0, 0, 0, 0, 0, 0, 0]", fillcolor="#e5dc39"] ;
128 -> 130 ;
131 [label="temp <= 0.34\ngini = 0.18\nsamples = 5\nvalue = [0, 0, 9, 0, 1, 0, 0, 0, 0, 0, 0, 0, 0, 0\n0, 0, 0, 0, 0, 0, 0, 0]", fillcolor="#e8e04f"] ;
127 -> 131 ;
132 [label="gini = 0.0\nsamples = 3\nvalue = [0, 0, 7, 0, 0, 0, 0, 0, 0, 0, 0, 0, 0, 0\n0, 0, 0, 0, 0, 0, 0, 0]", fillcolor="#e5dc39"] ;
131 -> 132 ;
133 [label="driverId <= 0.6\ngini = 0.44\nsamples = 2\nvalue = [0, 0, 2, 0, 1, 0, 0, 0, 0, 0, 0, 0, 0, 0\n0, 0, 0, 0, 0, 0, 0, 0]", fillcolor="#f2ee9c"] ;
131 -> 133 ;
134 [label="gini = 0.0\nsamples = 1\nvalue = [0, 0, 2, 0, 0, 0, 0, 0, 0, 0, 0, 0, 0, 0\n0, 0, 0, 0, 0, 0, 0, 0]", fillcolor="#e5dc39"] ;
133 -> 134 ;
135 [label="gini = 0.0\nsamples = 1\nvalue = [0, 0, 0, 0, 1, 0, 0, 0, 0, 0, 0, 0, 0, 0\n0, 0, 0, 0, 0, 0, 0, 0]", fillcolor="#8fe539"] ;
133 -> 135 ;
136 [label="circuitId <= -0.23\ngini = 0.47\nsamples = 5\nvalue = [0, 0, 0, 0, 5, 3, 0, 0, 0, 0, 0, 0, 0, 0\n0, 0, 0, 0, 0, 0, 0, 0]", fillcolor="#d2f5b0"] ;
126 -> 136 ;
137 [label="constructorId <= 0.05\ngini = 0.28\nsamples = 4\nvalue = [0, 0, 0, 0, 5, 1, 0, 0, 0, 0, 0, 0, 0, 0\n0, 0, 0, 0, 0, 0, 0, 0]", fillcolor="#a5ea61"] ;
136 -> 137 ;
138 [label="gini = 0.0\nsamples = 2\nvalue = [0, 0, 0, 0, 3, 0, 0, 0, 0, 0, 0, 0, 0, 0\n0, 0, 0, 0, 0, 0, 0, 0]", fillcolor="#8fe539"] ;
137 -> 138 ;
139 [label="circuitId <= -0.33\ngini = 0.44\nsamples = 2\nvalue = [0, 0, 0, 0, 2, 1, 0, 0, 0, 0, 0, 0, 0, 0\n0, 0, 0, 0, 0, 0, 0, 0]", fillcolor="#c7f29c"] ;
137 -> 139 ;
140 [label="gini = 0.0\nsamples = 1\nvalue = [0, 0, 0, 0, 0, 1, 0, 0, 0, 0, 0, 0, 0, 0\n0, 0, 0, 0, 0, 0, 0, 0]", fillcolor="#61e539"] ;
139 -> 140 ;
141 [label="gini = 0.0\nsamples = 1\nvalue = [0, 0, 0, 0, 2, 0, 0, 0, 0, 0, 0, 0, 0, 0\n0, 0, 0, 0, 0, 0, 0, 0]", fillcolor="#8fe539"] ;
139 -> 141 ;
142 [label="gini = 0.0\nsamples = 1\nvalue = [0, 0, 0, 0, 0, 2, 0, 0, 0, 0, 0, 0, 0, 0\n0, 0, 0, 0, 0, 0, 0, 0]", fillcolor="#61e539"] ;
136 -> 142 ;
143 [label="raceId <= -0.62\ngini = 0.59\nsamples = 13\nvalue = [1, 1, 4, 1, 14, 2, 0, 0, 0, 0, 0, 0, 0, 0\n0, 0, 0, 0, 0, 0, 0, 0]", fillcolor="#c4f197"] ;
125 -> 143 ;
144 [label="circuitId <= 1.78\ngini = 0.72\nsamples = 5\nvalue = [0, 0, 3, 1, 2, 2, 0, 0, 0, 0, 0, 0, 0, 0\n0, 0, 0, 0, 0, 0, 0, 0]", fillcolor="#fbf9de"] ;
143 -> 144 ;
145 [label="constructorId <= -0.76\ngini = 0.72\nsamples = 4\nvalue = [0, 0, 1, 1, 2, 2, 0, 0, 0, 0, 0, 0, 0, 0\n0, 0, 0, 0, 0, 0, 0, 0]", fillcolor="#ffffff"] ;
144 -> 145 ;
146 [label="gini = 0.0\nsamples = 1\nvalue = [0, 0, 0, 0, 0, 2, 0, 0, 0, 0, 0, 0, 0, 0\n0, 0, 0, 0, 0, 0, 0, 0]", fillcolor="#61e539"] ;
145 -> 146 ;
147 [label="driverId <= 0.6\ngini = 0.62\nsamples = 3\nvalue = [0, 0, 1, 1, 2, 0, 0, 0, 0, 0, 0, 0, 0, 0\n0, 0, 0, 0, 0, 0, 0, 0]", fillcolor="#daf6bd"] ;
145 -> 147 ;
148 [label="gini = 0.5\nsamples = 2\nvalue = [0, 0, 1, 1, 0, 0, 0, 0, 0, 0, 0, 0, 0, 0\n0, 0, 0, 0, 0, 0, 0, 0]", fillcolor="#ffffff"] ;
147 -> 148 ;
149 [label="gini = 0.0\nsamples = 1\nvalue = [0, 0, 0, 0, 2, 0, 0, 0, 0, 0, 0, 0, 0, 0\n0, 0, 0, 0, 0, 0, 0, 0]", fillcolor="#8fe539"] ;
147 -> 149 ;
150 [label="gini = 0.0\nsamples = 1\nvalue = [0, 0, 2, 0, 0, 0, 0, 0, 0, 0, 0, 0, 0, 0\n0, 0, 0, 0, 0, 0, 0, 0]", fillcolor="#e5dc39"] ;
144 -> 150 ;
151 [label="raceId <= 0.12\ngini = 0.35\nsamples = 8\nvalue = [1, 1, 1, 0, 12, 0, 0, 0, 0, 0, 0, 0, 0, 0\n0, 0, 0, 0, 0, 0, 0, 0]", fillcolor="#a7eb63"] ;
143 -> 151 ;
152 [label="temp <= 0.31\ngini = 0.14\nsamples = 6\nvalue = [1, 0, 0, 0, 12, 0, 0, 0, 0, 0, 0, 0, 0, 0\n0, 0, 0, 0, 0, 0, 0, 0]", fillcolor="#98e749"] ;
151 -> 152 ;
153 [label="raceId <= -0.31\ngini = 0.44\nsamples = 3\nvalue = [1, 0, 0, 0, 2, 0, 0, 0, 0, 0, 0, 0, 0, 0\n0, 0, 0, 0, 0, 0, 0, 0]", fillcolor="#c7f29c"] ;
152 -> 153 ;
154 [label="gini = 0.0\nsamples = 1\nvalue = [1, 0, 0, 0, 0, 0, 0, 0, 0, 0, 0, 0, 0, 0\n0, 0, 0, 0, 0, 0, 0, 0]", fillcolor="#e58139"] ;
153 -> 154 ;
155 [label="gini = 0.0\nsamples = 2\nvalue = [0, 0, 0, 0, 2, 0, 0, 0, 0, 0, 0, 0, 0, 0\n0, 0, 0, 0, 0, 0, 0, 0]", fillcolor="#8fe539"] ;
153 -> 155 ;
156 [label="gini = 0.0\nsamples = 3\nvalue = [0, 0, 0, 0, 10, 0, 0, 0, 0, 0, 0, 0, 0, 0\n0, 0, 0, 0, 0, 0, 0, 0]", fillcolor="#8fe539"] ;
152 -> 156 ;
157 [label="circuitId <= 0.84\ngini = 0.5\nsamples = 2\nvalue = [0, 1, 1, 0, 0, 0, 0, 0, 0, 0, 0, 0, 0, 0\n0, 0, 0, 0, 0, 0, 0, 0]", fillcolor="#ffffff"] ;
151 -> 157 ;
158 [label="gini = 0.0\nsamples = 1\nvalue = [0, 1, 0, 0, 0, 0, 0, 0, 0, 0, 0, 0, 0, 0\n0, 0, 0, 0, 0, 0, 0, 0]", fillcolor="#e5ae39"] ;
157 -> 158 ;
159 [label="gini = 0.0\nsamples = 1\nvalue = [0, 0, 1, 0, 0, 0, 0, 0, 0, 0, 0, 0, 0, 0\n0, 0, 0, 0, 0, 0, 0, 0]", fillcolor="#e5dc39"] ;
157 -> 159 ;
160 [label="precipitation <= -0.11\ngini = 0.78\nsamples = 31\nvalue = [11, 24, 7, 4, 2, 2, 3, 1, 3, 4, 0, 0, 0, 0\n0, 0, 0, 0, 0, 0, 0, 0]", fillcolor="#f8eacc"] ;
90 -> 160 ;
161 [label="driverId <= 0.62\ngini = 0.74\nsamples = 24\nvalue = [5, 22, 7, 4, 2, 2, 3, 1, 2, 0, 0, 0, 0, 0\n0, 0, 0, 0, 0, 0, 0, 0]", fillcolor="#f5e1b7"] ;
160 -> 161 ;
162 [label="temp <= -0.91\ngini = 0.72\nsamples = 9\nvalue = [2, 7, 7, 0, 2, 0, 2, 0, 0, 0, 0, 0, 0, 0\n0, 0, 0, 0, 0, 0, 0, 0]", fillcolor="#ffffff"] ;
161 -> 162 ;
163 [label="gini = 0.0\nsamples = 3\nvalue = [0, 7, 0, 0, 0, 0, 0, 0, 0, 0, 0, 0, 0, 0\n0, 0, 0, 0, 0, 0, 0, 0]", fillcolor="#e5ae39"] ;
162 -> 163 ;
164 [label="raceId <= 0.71\ngini = 0.64\nsamples = 6\nvalue = [2, 0, 7, 0, 2, 0, 2, 0, 0, 0, 0, 0, 0, 0\n0, 0, 0, 0, 0, 0, 0, 0]", fillcolor="#f3efa5"] ;
162 -> 164 ;
165 [label="raceId <= 0.43\ngini = 0.5\nsamples = 2\nvalue = [2, 0, 0, 0, 0, 0, 2, 0, 0, 0, 0, 0, 0, 0\n0, 0, 0, 0, 0, 0, 0, 0]", fillcolor="#ffffff"] ;
164 -> 165 ;
166 [label="gini = 0.0\nsamples = 1\nvalue = [2, 0, 0, 0, 0, 0, 0, 0, 0, 0, 0, 0, 0, 0\n0, 0, 0, 0, 0, 0, 0, 0]", fillcolor="#e58139"] ;
165 -> 166 ;
167 [label="gini = 0.0\nsamples = 1\nvalue = [0, 0, 0, 0, 0, 0, 2, 0, 0, 0, 0, 0, 0, 0\n0, 0, 0, 0, 0, 0, 0, 0]", fillcolor="#39e541"] ;
165 -> 167 ;
168 [label="temp <= -0.58\ngini = 0.35\nsamples = 4\nvalue = [0, 0, 7, 0, 2, 0, 0, 0, 0, 0, 0, 0, 0, 0\n0, 0, 0, 0, 0, 0, 0, 0]", fillcolor="#ece672"] ;
164 -> 168 ;
169 [label="gini = 0.0\nsamples = 1\nvalue = [0, 0, 0, 0, 2, 0, 0, 0, 0, 0, 0, 0, 0, 0\n0, 0, 0, 0, 0, 0, 0, 0]", fillcolor="#8fe539"] ;
168 -> 169 ;
170 [label="gini = 0.0\nsamples = 3\nvalue = [0, 0, 7, 0, 0, 0, 0, 0, 0, 0, 0, 0, 0, 0\n0, 0, 0, 0, 0, 0, 0, 0]", fillcolor="#e5dc39"] ;
168 -> 170 ;
171 [label="circuitId <= -0.53\ngini = 0.67\nsamples = 15\nvalue = [3, 15, 0, 4, 0, 2, 1, 1, 2, 0, 0, 0, 0, 0\n0, 0, 0, 0, 0, 0, 0, 0]", fillcolor="#f3daa4"] ;
161 -> 171 ;
172 [label="raceId <= 0.59\ngini = 0.64\nsamples = 5\nvalue = [0, 4, 0, 4, 0, 0, 0, 0, 2, 0, 0, 0, 0, 0\n0, 0, 0, 0, 0, 0, 0, 0]", fillcolor="#ffffff"] ;
171 -> 172 ;
173 [label="gini = 0.0\nsamples = 1\nvalue = [0, 0, 0, 2, 0, 0, 0, 0, 0, 0, 0, 0, 0, 0\n0, 0, 0, 0, 0, 0, 0, 0]", fillcolor="#bde539"] ;
172 -> 173 ;
174 [label="precipitation <= -0.44\ngini = 0.62\nsamples = 4\nvalue = [0, 4, 0, 2, 0, 0, 0, 0, 2, 0, 0, 0, 0, 0\n0, 0, 0, 0, 0, 0, 0, 0]", fillcolor="#f6e4bd"] ;
172 -> 174 ;
175 [label="temp <= 0.51\ngini = 0.44\nsamples = 3\nvalue = [0, 4, 0, 2, 0, 0, 0, 0, 0, 0, 0, 0, 0, 0\n0, 0, 0, 0, 0, 0, 0, 0]", fillcolor="#f2d69c"] ;
174 -> 175 ;
176 [label="gini = 0.0\nsamples = 2\nvalue = [0, 4, 0, 0, 0, 0, 0, 0, 0, 0, 0, 0, 0, 0\n0, 0, 0, 0, 0, 0, 0, 0]", fillcolor="#e5ae39"] ;
175 -> 176 ;
177 [label="gini = 0.0\nsamples = 1\nvalue = [0, 0, 0, 2, 0, 0, 0, 0, 0, 0, 0, 0, 0, 0\n0, 0, 0, 0, 0, 0, 0, 0]", fillcolor="#bde539"] ;
175 -> 177 ;
178 [label="gini = 0.0\nsamples = 1\nvalue = [0, 0, 0, 0, 0, 0, 0, 0, 2, 0, 0, 0, 0, 0\n0, 0, 0, 0, 0, 0, 0, 0]", fillcolor="#39e59d"] ;
174 -> 178 ;
179 [label="driverId <= 0.65\ngini = 0.58\nsamples = 10\nvalue = [3, 11, 0, 0, 0, 2, 1, 1, 0, 0, 0, 0, 0, 0\n0, 0, 0, 0, 0, 0, 0, 0]", fillcolor="#f1d495"] ;
171 -> 179 ;
180 [label="circuitId <= -0.27\ngini = 0.68\nsamples = 7\nvalue = [3, 5, 0, 0, 0, 2, 0, 1, 0, 0, 0, 0, 0, 0\n0, 0, 0, 0, 0, 0, 0, 0]", fillcolor="#f8ebce"] ;
179 -> 180 ;
181 [label="gini = 0.0\nsamples = 1\nvalue = [0, 0, 0, 0, 0, 2, 0, 0, 0, 0, 0, 0, 0, 0\n0, 0, 0, 0, 0, 0, 0, 0]", fillcolor="#61e539"] ;
180 -> 181 ;
182 [label="temp <= -2.76\ngini = 0.57\nsamples = 6\nvalue = [3, 5, 0, 0, 0, 0, 0, 1, 0, 0, 0, 0, 0, 0\n0, 0, 0, 0, 0, 0, 0, 0]", fillcolor="#f6e4bd"] ;
180 -> 182 ;
183 [label="gini = 0.0\nsamples = 1\nvalue = [0, 3, 0, 0, 0, 0, 0, 0, 0, 0, 0, 0, 0, 0\n0, 0, 0, 0, 0, 0, 0, 0]", fillcolor="#e5ae39"] ;
182 -> 183 ;
184 [label="gini = 0.61\nsamples = 5\nvalue = [3, 2, 0, 0, 0, 0, 0, 1, 0, 0, 0, 0, 0, 0\n0, 0, 0, 0, 0, 0, 0, 0]", fillcolor="#f8e0ce"] ;
182 -> 184 ;
185 [label="driverId <= 0.67\ngini = 0.24\nsamples = 3\nvalue = [0, 6, 0, 0, 0, 0, 1, 0, 0, 0, 0, 0, 0, 0\n0, 0, 0, 0, 0, 0, 0, 0]", fillcolor="#e9bc5a"] ;
179 -> 185 ;
186 [label="gini = 0.0\nsamples = 1\nvalue = [0, 3, 0, 0, 0, 0, 0, 0, 0, 0, 0, 0, 0, 0\n0, 0, 0, 0, 0, 0, 0, 0]", fillcolor="#e5ae39"] ;
185 -> 186 ;
187 [label="raceId <= 1.37\ngini = 0.38\nsamples = 2\nvalue = [0, 3, 0, 0, 0, 0, 1, 0, 0, 0, 0, 0, 0, 0\n0, 0, 0, 0, 0, 0, 0, 0]", fillcolor="#eec97b"] ;
185 -> 187 ;
188 [label="gini = 0.0\nsamples = 1\nvalue = [0, 3, 0, 0, 0, 0, 0, 0, 0, 0, 0, 0, 0, 0\n0, 0, 0, 0, 0, 0, 0, 0]", fillcolor="#e5ae39"] ;
187 -> 188 ;
189 [label="gini = 0.0\nsamples = 1\nvalue = [0, 0, 0, 0, 0, 0, 1, 0, 0, 0, 0, 0, 0, 0\n0, 0, 0, 0, 0, 0, 0, 0]", fillcolor="#39e541"] ;
187 -> 189 ;
190 [label="precipitation <= 0.31\ngini = 0.66\nsamples = 7\nvalue = [6, 2, 0, 0, 0, 0, 0, 0, 1, 4, 0, 0, 0, 0\n0, 0, 0, 0, 0, 0, 0, 0]", fillcolor="#f9e3d3"] ;
160 -> 190 ;
191 [label="raceId <= 1.54\ngini = 0.24\nsamples = 4\nvalue = [6, 1, 0, 0, 0, 0, 0, 0, 0, 0, 0, 0, 0, 0\n0, 0, 0, 0, 0, 0, 0, 0]", fillcolor="#e9965a"] ;
190 -> 191 ;
192 [label="gini = 0.0\nsamples = 3\nvalue = [6, 0, 0, 0, 0, 0, 0, 0, 0, 0, 0, 0, 0, 0\n0, 0, 0, 0, 0, 0, 0, 0]", fillcolor="#e58139"] ;
191 -> 192 ;
193 [label="gini = 0.0\nsamples = 1\nvalue = [0, 1, 0, 0, 0, 0, 0, 0, 0, 0, 0, 0, 0, 0\n0, 0, 0, 0, 0, 0, 0, 0]", fillcolor="#e5ae39"] ;
191 -> 193 ;
194 [label="raceId <= 0.79\ngini = 0.5\nsamples = 3\nvalue = [0, 1, 0, 0, 0, 0, 0, 0, 1, 4, 0, 0, 0, 0\n0, 0, 0, 0, 0, 0, 0, 0]", fillcolor="#88efe2"] ;
190 -> 194 ;
195 [label="gini = 0.0\nsamples = 1\nvalue = [0, 1, 0, 0, 0, 0, 0, 0, 0, 0, 0, 0, 0, 0\n0, 0, 0, 0, 0, 0, 0, 0]", fillcolor="#e5ae39"] ;
194 -> 195 ;
196 [label="temp <= 0.37\ngini = 0.32\nsamples = 2\nvalue = [0, 0, 0, 0, 0, 0, 0, 0, 1, 4, 0, 0, 0, 0\n0, 0, 0, 0, 0, 0, 0, 0]", fillcolor="#6aecda"] ;
194 -> 196 ;
197 [label="gini = 0.0\nsamples = 1\nvalue = [0, 0, 0, 0, 0, 0, 0, 0, 0, 4, 0, 0, 0, 0\n0, 0, 0, 0, 0, 0, 0, 0]", fillcolor="#39e5ce"] ;
196 -> 197 ;
198 [label="gini = 0.0\nsamples = 1\nvalue = [0, 0, 0, 0, 0, 0, 0, 0, 1, 0, 0, 0, 0, 0\n0, 0, 0, 0, 0, 0, 0, 0]", fillcolor="#39e59d"] ;
196 -> 198 ;
199 [label="driverId <= -1.64\ngini = 0.9\nsamples = 19\nvalue = [0, 0, 0, 0, 0, 0, 0, 2, 3, 0, 4, 4, 2, 2\n5, 3, 0, 3, 4, 1, 0, 0]", fillcolor="#faf8fe"] ;
1 -> 199 ;
200 [label="gini = 0.0\nsamples = 1\nvalue = [0, 0, 0, 0, 0, 0, 0, 0, 3, 0, 0, 0, 0, 0\n0, 0, 0, 0, 0, 0, 0, 0]", fillcolor="#39e59d"] ;
199 -> 200 ;
201 [label="driverId <= -1.62\ngini = 0.88\nsamples = 18\nvalue = [0, 0, 0, 0, 0, 0, 0, 2, 0, 0, 4, 4, 2, 2\n5, 3, 0, 3, 4, 1, 0, 0]", fillcolor="#f9f7fe"] ;
199 -> 201 ;
202 [label="circuitId <= -0.19\ngini = 0.48\nsamples = 2\nvalue = [0, 0, 0, 0, 0, 0, 0, 0, 0, 0, 0, 3, 0, 2\n0, 0, 0, 0, 0, 0, 0, 0]", fillcolor="#bddff6"] ;
201 -> 202 ;
203 [label="gini = 0.0\nsamples = 1\nvalue = [0, 0, 0, 0, 0, 0, 0, 0, 0, 0, 0, 3, 0, 0\n0, 0, 0, 0, 0, 0, 0, 0]", fillcolor="#39a0e5"] ;
202 -> 203 ;
204 [label="gini = 0.0\nsamples = 1\nvalue = [0, 0, 0, 0, 0, 0, 0, 0, 0, 0, 0, 0, 0, 2\n0, 0, 0, 0, 0, 0, 0, 0]", fillcolor="#3941e5"] ;
202 -> 204 ;
205 [label="temp <= -1.14\ngini = 0.86\nsamples = 16\nvalue = [0, 0, 0, 0, 0, 0, 0, 2, 0, 0, 4, 1, 2, 0\n5, 3, 0, 3, 4, 1, 0, 0]", fillcolor="#f7f6fe"] ;
201 -> 205 ;
206 [label="statusId <= 0.61\ngini = 0.28\nsamples = 4\nvalue = [0, 0, 0, 0, 0, 0, 0, 0, 0, 0, 0, 0, 0, 0\n5, 1, 0, 0, 0, 0, 0, 0]", fillcolor="#8161ea"] ;
205 -> 206 ;
207 [label="constructorId <= -0.46\ngini = 0.38\nsamples = 3\nvalue = [0, 0, 0, 0, 0, 0, 0, 0, 0, 0, 0, 0, 0, 0\n3, 1, 0, 0, 0, 0, 0, 0]", fillcolor="#967bee"] ;
206 -> 207 ;
208 [label="gini = 0.0\nsamples = 1\nvalue = [0, 0, 0, 0, 0, 0, 0, 0, 0, 0, 0, 0, 0, 0\n0, 1, 0, 0, 0, 0, 0, 0]", fillcolor="#8f39e5"] ;
207 -> 208 ;
209 [label="gini = 0.0\nsamples = 2\nvalue = [0, 0, 0, 0, 0, 0, 0, 0, 0, 0, 0, 0, 0, 0\n3, 0, 0, 0, 0, 0, 0, 0]", fillcolor="#6139e5"] ;
207 -> 209 ;
210 [label="gini = 0.0\nsamples = 1\nvalue = [0, 0, 0, 0, 0, 0, 0, 0, 0, 0, 0, 0, 0, 0\n2, 0, 0, 0, 0, 0, 0, 0]", fillcolor="#6139e5"] ;
206 -> 210 ;
211 [label="statusId <= 1.25\ngini = 0.85\nsamples = 12\nvalue = [0, 0, 0, 0, 0, 0, 0, 2, 0, 0, 4, 1, 2, 0\n0, 2, 0, 3, 4, 1, 0, 0]", fillcolor="#ffffff"] ;
205 -> 211 ;
212 [label="circuitId <= 1.14\ngini = 0.81\nsamples = 9\nvalue = [0, 0, 0, 0, 0, 0, 0, 2, 0, 0, 4, 1, 2, 0\n0, 2, 0, 3, 0, 0, 0, 0]", fillcolor="#edfbfd"] ;
211 -> 212 ;
213 [label="precipitation <= -0.08\ngini = 0.64\nsamples = 5\nvalue = [0, 0, 0, 0, 0, 0, 0, 2, 0, 0, 0, 1, 0, 0\n0, 2, 0, 0, 0, 0, 0, 0]", fillcolor="#ffffff"] ;
212 -> 213 ;
214 [label="constructorId <= -0.71\ngini = 0.5\nsamples = 4\nvalue = [0, 0, 0, 0, 0, 0, 0, 2, 0, 0, 0, 0, 0, 0\n0, 2, 0, 0, 0, 0, 0, 0]", fillcolor="#ffffff"] ;
213 -> 214 ;
215 [label="gini = 0.0\nsamples = 2\nvalue = [0, 0, 0, 0, 0, 0, 0, 0, 0, 0, 0, 0, 0, 0\n0, 2, 0, 0, 0, 0, 0, 0]", fillcolor="#8f39e5"] ;
214 -> 215 ;
216 [label="gini = 0.0\nsamples = 2\nvalue = [0, 0, 0, 0, 0, 0, 0, 2, 0, 0, 0, 0, 0, 0\n0, 0, 0, 0, 0, 0, 0, 0]", fillcolor="#39e56f"] ;
214 -> 216 ;
217 [label="gini = 0.0\nsamples = 1\nvalue = [0, 0, 0, 0, 0, 0, 0, 0, 0, 0, 0, 1, 0, 0\n0, 0, 0, 0, 0, 0, 0, 0]", fillcolor="#39a0e5"] ;
213 -> 217 ;
218 [label="raceId <= 0.73\ngini = 0.64\nsamples = 4\nvalue = [0, 0, 0, 0, 0, 0, 0, 0, 0, 0, 4, 0, 2, 0\n0, 0, 0, 3, 0, 0, 0, 0]", fillcolor="#def7fb"] ;
212 -> 218 ;
219 [label="statusId <= 0.61\ngini = 0.48\nsamples = 2\nvalue = [0, 0, 0, 0, 0, 0, 0, 0, 0, 0, 0, 0, 2, 0\n0, 0, 0, 3, 0, 0, 0, 0]", fillcolor="#f6bdf3"] ;
218 -> 219 ;
220 [label="gini = 0.0\nsamples = 1\nvalue = [0, 0, 0, 0, 0, 0, 0, 0, 0, 0, 0, 0, 2, 0\n0, 0, 0, 0, 0, 0, 0, 0]", fillcolor="#396fe5"] ;
219 -> 220 ;
221 [label="gini = 0.0\nsamples = 1\nvalue = [0, 0, 0, 0, 0, 0, 0, 0, 0, 0, 0, 0, 0, 0\n0, 0, 0, 3, 0, 0, 0, 0]", fillcolor="#e539dc"] ;
219 -> 221 ;
222 [label="gini = 0.0\nsamples = 2\nvalue = [0, 0, 0, 0, 0, 0, 0, 0, 0, 0, 4, 0, 0, 0\n0, 0, 0, 0, 0, 0, 0, 0]", fillcolor="#39cee5"] ;
218 -> 222 ;
223 [label="driverId <= -0.52\ngini = 0.32\nsamples = 3\nvalue = [0, 0, 0, 0, 0, 0, 0, 0, 0, 0, 0, 0, 0, 0\n0, 0, 0, 0, 4, 1, 0, 0]", fillcolor="#ec6ac2"] ;
211 -> 223 ;
224 [label="gini = 0.0\nsamples = 1\nvalue = [0, 0, 0, 0, 0, 0, 0, 0, 0, 0, 0, 0, 0, 0\n0, 0, 0, 0, 0, 1, 0, 0]", fillcolor="#e53981"] ;
223 -> 224 ;
225 [label="gini = 0.0\nsamples = 2\nvalue = [0, 0, 0, 0, 0, 0, 0, 0, 0, 0, 0, 0, 0, 0\n0, 0, 0, 0, 4, 0, 0, 0]", fillcolor="#e539ae"] ;
223 -> 225 ;
226 [label="statusId <= -0.41\ngini = 0.94\nsamples = 1279\nvalue = [17, 36, 76, 107, 118, 129, 159, 129, 130, 156, 147\n119, 136, 120, 108, 106, 86, 69, 25, 14, 9, 1]", fillcolor="#ffffff"] ;
0 -> 226 [labeldistance=2.5, labelangle=-45, headlabel="False"] ;
227 [label="grid <= -0.45\ngini = 0.92\nsamples = 661\nvalue = [17, 36, 76, 103, 113, 116, 118, 89, 82, 77, 61\n42, 44, 29, 14, 11, 2, 1, 1, 0, 0, 0]", fillcolor="#ffffff"] ;
226 -> 227 ;
228 [label="constructorId <= 1.24\ngini = 0.87\nsamples = 256\nvalue = [10, 28, 55, 77, 69, 65, 47, 13, 5, 19, 8, 3, 4\n0, 0, 0, 0, 0, 0, 0, 0, 0]", fillcolor="#fdfefa"] ;
227 -> 228 ;
229 [label="grid <= -0.61\ngini = 0.86\nsamples = 225\nvalue = [10, 28, 54, 74, 62, 49, 37, 12, 1, 12, 4, 3, 3\n0, 0, 0, 0, 0, 0, 0, 0, 0]", fillcolor="#fcfef7"] ;
228 -> 229 ;
230 [label="temp <= 1.88\ngini = 0.84\nsamples = 176\nvalue = [10, 27, 48, 69, 50, 25, 23, 5, 1, 9, 3, 1, 2\n0, 0, 0, 0, 0, 0, 0, 0, 0]", fillcolor="#f9fdee"] ;
229 -> 230 ;
231 [label="constructorId <= -0.72\ngini = 0.85\nsamples = 173\nvalue = [9, 27, 48, 64, 50, 25, 23, 5, 1, 9, 3, 1, 2\n0, 0, 0, 0, 0, 0, 0, 0, 0]", fillcolor="#fbfdf2"] ;
230 -> 231 ;
232 [label="raceId <= -1.68\ngini = 0.84\nsamples = 39\nvalue = [0, 1, 8, 9, 17, 7, 8, 2, 0, 7, 0, 0, 2, 0\n0, 0, 0, 0, 0, 0, 0, 0]", fillcolor="#eefbe1"] ;
231 -> 232 ;
233 [label="raceId <= -1.73\ngini = 0.5\nsamples = 3\nvalue = [0, 1, 0, 0, 1, 0, 4, 0, 0, 0, 0, 0, 0, 0\n0, 0, 0, 0, 0, 0, 0, 0]", fillcolor="#88ef8d"] ;
232 -> 233 ;
234 [label="circuitId <= -0.93\ngini = 0.5\nsamples = 2\nvalue = [0, 1, 0, 0, 1, 0, 0, 0, 0, 0, 0, 0, 0, 0\n0, 0, 0, 0, 0, 0, 0, 0]", fillcolor="#ffffff"] ;
233 -> 234 ;
235 [label="gini = 0.0\nsamples = 1\nvalue = [0, 1, 0, 0, 0, 0, 0, 0, 0, 0, 0, 0, 0, 0\n0, 0, 0, 0, 0, 0, 0, 0]", fillcolor="#e5ae39"] ;
234 -> 235 ;
236 [label="gini = 0.0\nsamples = 1\nvalue = [0, 0, 0, 0, 1, 0, 0, 0, 0, 0, 0, 0, 0, 0\n0, 0, 0, 0, 0, 0, 0, 0]", fillcolor="#8fe539"] ;
234 -> 236 ;
237 [label="gini = 0.0\nsamples = 1\nvalue = [0, 0, 0, 0, 0, 0, 4, 0, 0, 0, 0, 0, 0, 0\n0, 0, 0, 0, 0, 0, 0, 0]", fillcolor="#39e541"] ;
233 -> 237 ;
238 [label="circuitId <= 1.84\ngini = 0.83\nsamples = 36\nvalue = [0, 0, 8, 9, 16, 7, 4, 2, 0, 7, 0, 0, 2, 0\n0, 0, 0, 0, 0, 0, 0, 0]", fillcolor="#eefbe1"] ;
232 -> 238 ;
239 [label="precipitation <= 2.15\ngini = 0.81\nsamples = 35\nvalue = [0, 0, 8, 9, 16, 7, 4, 2, 0, 3, 0, 0, 2, 0\n0, 0, 0, 0, 0, 0, 0, 0]", fillcolor="#ecfbde"] ;
238 -> 239 ;
240 [label="gini = 0.81\nsamples = 33\nvalue = [0, 0, 8, 5, 16, 7, 4, 2, 0, 3, 0, 0, 2, 0\n0, 0, 0, 0, 0, 0, 0, 0]", fillcolor="#e8fad6"] ;
239 -> 240 ;
241 [label="gini = 0.0\nsamples = 2\nvalue = [0, 0, 0, 4, 0, 0, 0, 0, 0, 0, 0, 0, 0, 0\n0, 0, 0, 0, 0, 0, 0, 0]", fillcolor="#bde539"] ;
239 -> 241 ;
242 [label="gini = 0.0\nsamples = 1\nvalue = [0, 0, 0, 0, 0, 0, 0, 0, 0, 4, 0, 0, 0, 0\n0, 0, 0, 0, 0, 0, 0, 0]", fillcolor="#39e5ce"] ;
238 -> 242 ;
243 [label="precipitation <= 2.13\ngini = 0.83\nsamples = 134\nvalue = [9, 26, 40, 55, 33, 18, 15, 3, 1, 2, 3, 1, 0\n0, 0, 0, 0, 0, 0, 0, 0, 0]", fillcolor="#f9fded"] ;
231 -> 243 ;
244 [label="grid <= -0.78\ngini = 0.83\nsamples = 131\nvalue = [9, 22, 40, 55, 33, 18, 15, 0, 1, 2, 3, 1, 0\n0, 0, 0, 0, 0, 0, 0, 0, 0]", fillcolor="#f9fdec"] ;
243 -> 244 ;
245 [label="raceId <= 0.36\ngini = 0.83\nsamples = 94\nvalue = [5, 18, 23, 39, 22, 10, 13, 0, 1, 2, 3, 1, 0\n0, 0, 0, 0, 0, 0, 0, 0, 0]", fillcolor="#f6fbe3"] ;
244 -> 245 ;
246 [label="gini = 0.81\nsamples = 60\nvalue = [4, 12, 6, 29, 19, 9, 8, 0, 1, 2, 0, 1, 0, 0\n0, 0, 0, 0, 0, 0, 0, 0]", fillcolor="#f6fbe4"] ;
245 -> 246 ;
247 [label="gini = 0.78\nsamples = 34\nvalue = [1, 6, 17, 10, 3, 1, 5, 0, 0, 0, 3, 0, 0, 0\n0, 0, 0, 0, 0, 0, 0, 0]", fillcolor="#faf8d9"] ;
245 -> 247 ;
248 [label="constructorId <= 0.06\ngini = 0.8\nsamples = 37\nvalue = [4, 4, 17, 16, 11, 8, 2, 0, 0, 0, 0, 0, 0, 0\n0, 0, 0, 0, 0, 0, 0, 0]", fillcolor="#fefefb"] ;
244 -> 248 ;
249 [label="gini = 0.79\nsamples = 31\nvalue = [4, 2, 15, 13, 5, 8, 2, 0, 0, 0, 0, 0, 0, 0\n0, 0, 0, 0, 0, 0, 0, 0]", fillcolor="#fefdf4"] ;
248 -> 249 ;
250 [label="gini = 0.69\nsamples = 6\nvalue = [0, 2, 2, 3, 6, 0, 0, 0, 0, 0, 0, 0, 0, 0\n0, 0, 0, 0, 0, 0, 0, 0]", fillcolor="#ddf7c4"] ;
248 -> 250 ;
251 [label="constructorId <= -0.69\ngini = 0.49\nsamples = 3\nvalue = [0, 4, 0, 0, 0, 0, 0, 3, 0, 0, 0, 0, 0, 0\n0, 0, 0, 0, 0, 0, 0, 0]", fillcolor="#f8ebce"] ;
243 -> 251 ;
252 [label="grid <= -0.95\ngini = 0.32\nsamples = 2\nvalue = [0, 4, 0, 0, 0, 0, 0, 1, 0, 0, 0, 0, 0, 0\n0, 0, 0, 0, 0, 0, 0, 0]", fillcolor="#ecc26a"] ;
251 -> 252 ;
253 [label="gini = 0.0\nsamples = 1\nvalue = [0, 4, 0, 0, 0, 0, 0, 0, 0, 0, 0, 0, 0, 0\n0, 0, 0, 0, 0, 0, 0, 0]", fillcolor="#e5ae39"] ;
252 -> 253 ;
254 [label="gini = 0.0\nsamples = 1\nvalue = [0, 0, 0, 0, 0, 0, 0, 1, 0, 0, 0, 0, 0, 0\n0, 0, 0, 0, 0, 0, 0, 0]", fillcolor="#39e56f"] ;
252 -> 254 ;
255 [label="gini = 0.0\nsamples = 1\nvalue = [0, 0, 0, 0, 0, 0, 0, 2, 0, 0, 0, 0, 0, 0\n0, 0, 0, 0, 0, 0, 0, 0]", fillcolor="#39e56f"] ;
251 -> 255 ;
256 [label="precipitation <= -0.41\ngini = 0.28\nsamples = 3\nvalue = [1, 0, 0, 5, 0, 0, 0, 0, 0, 0, 0, 0, 0, 0\n0, 0, 0, 0, 0, 0, 0, 0]", fillcolor="#caea61"] ;
230 -> 256 ;
257 [label="gini = 0.0\nsamples = 1\nvalue = [1, 0, 0, 0, 0, 0, 0, 0, 0, 0, 0, 0, 0, 0\n0, 0, 0, 0, 0, 0, 0, 0]", fillcolor="#e58139"] ;
256 -> 257 ;
258 [label="gini = 0.0\nsamples = 2\nvalue = [0, 0, 0, 5, 0, 0, 0, 0, 0, 0, 0, 0, 0, 0\n0, 0, 0, 0, 0, 0, 0, 0]", fillcolor="#bde539"] ;
256 -> 258 ;
259 [label="temp <= -0.9\ngini = 0.82\nsamples = 49\nvalue = [0, 1, 6, 5, 12, 24, 14, 7, 0, 3, 1, 2, 1, 0\n0, 0, 0, 0, 0, 0, 0, 0]", fillcolor="#e6fbdf"] ;
229 -> 259 ;
260 [label="precipitation <= 0.05\ngini = 0.52\nsamples = 8\nvalue = [0, 0, 0, 0, 8, 4, 1, 0, 0, 0, 0, 0, 0, 0\n0, 0, 0, 0, 0, 0, 0, 0]", fillcolor="#cdf3a7"] ;
259 -> 260 ;
261 [label="temp <= -1.56\ngini = 0.32\nsamples = 6\nvalue = [0, 0, 0, 0, 8, 2, 0, 0, 0, 0, 0, 0, 0, 0\n0, 0, 0, 0, 0, 0, 0, 0]", fillcolor="#abec6a"] ;
260 -> 261 ;
262 [label="gini = 0.0\nsamples = 1\nvalue = [0, 0, 0, 0, 0, 1, 0, 0, 0, 0, 0, 0, 0, 0\n0, 0, 0, 0, 0, 0, 0, 0]", fillcolor="#61e539"] ;
261 -> 262 ;
263 [label="raceId <= 1.53\ngini = 0.2\nsamples = 5\nvalue = [0, 0, 0, 0, 8, 1, 0, 0, 0, 0, 0, 0, 0, 0\n0, 0, 0, 0, 0, 0, 0, 0]", fillcolor="#9de852"] ;
261 -> 263 ;
264 [label="gini = 0.0\nsamples = 4\nvalue = [0, 0, 0, 0, 8, 0, 0, 0, 0, 0, 0, 0, 0, 0\n0, 0, 0, 0, 0, 0, 0, 0]", fillcolor="#8fe539"] ;
263 -> 264 ;
265 [label="gini = 0.0\nsamples = 1\nvalue = [0, 0, 0, 0, 0, 1, 0, 0, 0, 0, 0, 0, 0, 0\n0, 0, 0, 0, 0, 0, 0, 0]", fillcolor="#61e539"] ;
263 -> 265 ;
266 [label="constructorId <= -0.74\ngini = 0.44\nsamples = 2\nvalue = [0, 0, 0, 0, 0, 2, 1, 0, 0, 0, 0, 0, 0, 0\n0, 0, 0, 0, 0, 0, 0, 0]", fillcolor="#b0f29c"] ;
260 -> 266 ;
267 [label="gini = 0.0\nsamples = 1\nvalue = [0, 0, 0, 0, 0, 2, 0, 0, 0, 0, 0, 0, 0, 0\n0, 0, 0, 0, 0, 0, 0, 0]", fillcolor="#61e539"] ;
266 -> 267 ;
268 [label="gini = 0.0\nsamples = 1\nvalue = [0, 0, 0, 0, 0, 0, 1, 0, 0, 0, 0, 0, 0, 0\n0, 0, 0, 0, 0, 0, 0, 0]", fillcolor="#39e541"] ;
266 -> 268 ;
269 [label="raceId <= 0.17\ngini = 0.82\nsamples = 41\nvalue = [0, 1, 6, 5, 4, 20, 13, 7, 0, 3, 1, 2, 1, 0\n0, 0, 0, 0, 0, 0, 0, 0]", fillcolor="#e9fbe3"] ;
259 -> 269 ;
270 [label="temp <= 1.71\ngini = 0.68\nsamples = 26\nvalue = [0, 0, 4, 2, 1, 19, 3, 5, 0, 1, 0, 0, 1, 0\n0, 0, 0, 0, 0, 0, 0, 0]", fillcolor="#b8f3a6"] ;
269 -> 270 ;
271 [label="circuitId <= -0.83\ngini = 0.62\nsamples = 23\nvalue = [0, 0, 1, 2, 0, 18, 3, 5, 0, 1, 0, 0, 1, 0\n0, 0, 0, 0, 0, 0, 0, 0]", fillcolor="#b0f29c"] ;
270 -> 271 ;
272 [label="gini = 0.0\nsamples = 4\nvalue = [0, 0, 0, 0, 0, 6, 0, 0, 0, 0, 0, 0, 0, 0\n0, 0, 0, 0, 0, 0, 0, 0]", fillcolor="#61e539"] ;
271 -> 272 ;
273 [label="temp <= -0.04\ngini = 0.7\nsamples = 19\nvalue = [0, 0, 1, 2, 0, 12, 3, 5, 0, 1, 0, 0, 1, 0\n0, 0, 0, 0, 0, 0, 0, 0]", fillcolor="#c8f6ba"] ;
271 -> 273 ;
274 [label="gini = 0.74\nsamples = 9\nvalue = [0, 0, 1, 2, 0, 2, 1, 4, 0, 0, 0, 0, 0, 0\n0, 0, 0, 0, 0, 0, 0, 0]", fillcolor="#cef8db"] ;
273 -> 274 ;
275 [label="gini = 0.52\nsamples = 10\nvalue = [0, 0, 0, 0, 0, 10, 2, 1, 0, 1, 0, 0, 1, 0\n0, 0, 0, 0, 0, 0, 0, 0]", fillcolor="#9eef85"] ;
273 -> 275 ;
276 [label="precipitation <= -0.46\ngini = 0.56\nsamples = 3\nvalue = [0, 0, 3, 0, 1, 1, 0, 0, 0, 0, 0, 0, 0, 0\n0, 0, 0, 0, 0, 0, 0, 0]", fillcolor="#f2ee9c"] ;
270 -> 276 ;
277 [label="gini = 0.0\nsamples = 1\nvalue = [0, 0, 3, 0, 0, 0, 0, 0, 0, 0, 0, 0, 0, 0\n0, 0, 0, 0, 0, 0, 0, 0]", fillcolor="#e5dc39"] ;
276 -> 277 ;
278 [label="temp <= 1.87\ngini = 0.5\nsamples = 2\nvalue = [0, 0, 0, 0, 1, 1, 0, 0, 0, 0, 0, 0, 0, 0\n0, 0, 0, 0, 0, 0, 0, 0]", fillcolor="#ffffff"] ;
276 -> 278 ;
279 [label="gini = 0.0\nsamples = 1\nvalue = [0, 0, 0, 0, 1, 0, 0, 0, 0, 0, 0, 0, 0, 0\n0, 0, 0, 0, 0, 0, 0, 0]", fillcolor="#8fe539"] ;
278 -> 279 ;
280 [label="gini = 0.0\nsamples = 1\nvalue = [0, 0, 0, 0, 0, 1, 0, 0, 0, 0, 0, 0, 0, 0\n0, 0, 0, 0, 0, 0, 0, 0]", fillcolor="#61e539"] ;
278 -> 280 ;
281 [label="circuitId <= -0.55\ngini = 0.81\nsamples = 15\nvalue = [0, 1, 2, 3, 3, 1, 10, 2, 0, 2, 1, 2, 0, 0\n0, 0, 0, 0, 0, 0, 0, 0]", fillcolor="#c5f7c8"] ;
269 -> 281 ;
282 [label="driverId <= 0.65\ngini = 0.35\nsamples = 4\nvalue = [0, 0, 0, 2, 0, 0, 7, 0, 0, 0, 0, 0, 0, 0\n0, 0, 0, 0, 0, 0, 0, 0]", fillcolor="#72ec77"] ;
281 -> 282 ;
283 [label="gini = 0.0\nsamples = 2\nvalue = [0, 0, 0, 0, 0, 0, 5, 0, 0, 0, 0, 0, 0, 0\n0, 0, 0, 0, 0, 0, 0, 0]", fillcolor="#39e541"] ;
282 -> 283 ;
284 [label="circuitId <= -0.87\ngini = 0.5\nsamples = 2\nvalue = [0, 0, 0, 2, 0, 0, 2, 0, 0, 0, 0, 0, 0, 0\n0, 0, 0, 0, 0, 0, 0, 0]", fillcolor="#ffffff"] ;
282 -> 284 ;
285 [label="gini = 0.0\nsamples = 1\nvalue = [0, 0, 0, 2, 0, 0, 0, 0, 0, 0, 0, 0, 0, 0\n0, 0, 0, 0, 0, 0, 0, 0]", fillcolor="#bde539"] ;
284 -> 285 ;
286 [label="gini = 0.0\nsamples = 1\nvalue = [0, 0, 0, 0, 0, 0, 2, 0, 0, 0, 0, 0, 0, 0\n0, 0, 0, 0, 0, 0, 0, 0]", fillcolor="#39e541"] ;
284 -> 286 ;
287 [label="raceId <= 0.68\ngini = 0.88\nsamples = 11\nvalue = [0, 1, 2, 1, 3, 1, 3, 2, 0, 2, 1, 2, 0, 0\n0, 0, 0, 0, 0, 0, 0, 0]", fillcolor="#ffffff"] ;
281 -> 287 ;
288 [label="circuitId <= -0.29\ngini = 0.48\nsamples = 3\nvalue = [0, 0, 0, 0, 3, 0, 0, 0, 0, 0, 0, 2, 0, 0\n0, 0, 0, 0, 0, 0, 0, 0]", fillcolor="#daf6bd"] ;
287 -> 288 ;
289 [label="gini = 0.0\nsamples = 1\nvalue = [0, 0, 0, 0, 0, 0, 0, 0, 0, 0, 0, 2, 0, 0\n0, 0, 0, 0, 0, 0, 0, 0]", fillcolor="#39a0e5"] ;
288 -> 289 ;
290 [label="gini = 0.0\nsamples = 2\nvalue = [0, 0, 0, 0, 3, 0, 0, 0, 0, 0, 0, 0, 0, 0\n0, 0, 0, 0, 0, 0, 0, 0]", fillcolor="#8fe539"] ;
288 -> 290 ;
291 [label="constructorId <= -0.74\ngini = 0.85\nsamples = 8\nvalue = [0, 1, 2, 1, 0, 1, 3, 2, 0, 2, 1, 0, 0, 0\n0, 0, 0, 0, 0, 0, 0, 0]", fillcolor="#edfdee"] ;
287 -> 291 ;
292 [label="gini = 0.72\nsamples = 4\nvalue = [0, 0, 0, 0, 0, 1, 3, 2, 0, 2, 0, 0, 0, 0\n0, 0, 0, 0, 0, 0, 0, 0]", fillcolor="#defbdf"] ;
291 -> 292 ;
293 [label="gini = 0.72\nsamples = 4\nvalue = [0, 1, 2, 1, 0, 0, 0, 0, 0, 0, 1, 0, 0, 0\n0, 0, 0, 0, 0, 0, 0, 0]", fillcolor="#f8f6ce"] ;
291 -> 293 ;
294 [label="precipitation <= 2.15\ngini = 0.83\nsamples = 31\nvalue = [0, 0, 1, 3, 7, 16, 10, 1, 4, 7, 4, 0, 1, 0\n0, 0, 0, 0, 0, 0, 0, 0]", fillcolor="#e9fbe4"] ;
228 -> 294 ;
295 [label="temp <= 0.8\ngini = 0.8\nsamples = 29\nvalue = [0, 0, 1, 3, 7, 16, 10, 1, 4, 1, 4, 0, 1, 0\n0, 0, 0, 0, 0, 0, 0, 0]", fillcolor="#e6fbe0"] ;
294 -> 295 ;
296 [label="circuitId <= -0.71\ngini = 0.8\nsamples = 27\nvalue = [0, 0, 1, 3, 5, 16, 10, 1, 4, 1, 4, 0, 1, 0\n0, 0, 0, 0, 0, 0, 0, 0]", fillcolor="#e5fbde"] ;
295 -> 296 ;
297 [label="constructorId <= 1.76\ngini = 0.55\nsamples = 7\nvalue = [0, 0, 0, 0, 0, 8, 6, 0, 0, 1, 0, 0, 0, 0\n0, 0, 0, 0, 0, 0, 0, 0]", fillcolor="#dcf9d3"] ;
296 -> 297 ;
298 [label="raceId <= 0.9\ngini = 0.52\nsamples = 6\nvalue = [0, 0, 0, 0, 0, 8, 4, 0, 0, 1, 0, 0, 0, 0\n0, 0, 0, 0, 0, 0, 0, 0]", fillcolor="#b9f3a7"] ;
297 -> 298 ;
299 [label="grid <= -0.61\ngini = 0.59\nsamples = 4\nvalue = [0, 0, 0, 0, 0, 3, 4, 0, 0, 1, 0, 0, 0, 0\n0, 0, 0, 0, 0, 0, 0, 0]", fillcolor="#d7fad9"] ;
298 -> 299 ;
300 [label="gini = 0.0\nsamples = 2\nvalue = [0, 0, 0, 0, 0, 0, 4, 0, 0, 0, 0, 0, 0, 0\n0, 0, 0, 0, 0, 0, 0, 0]", fillcolor="#39e541"] ;
299 -> 300 ;
301 [label="gini = 0.38\nsamples = 2\nvalue = [0, 0, 0, 0, 0, 3, 0, 0, 0, 1, 0, 0, 0, 0\n0, 0, 0, 0, 0, 0, 0, 0]", fillcolor="#96ee7b"] ;
299 -> 301 ;
302 [label="gini = 0.0\nsamples = 2\nvalue = [0, 0, 0, 0, 0, 5, 0, 0, 0, 0, 0, 0, 0, 0\n0, 0, 0, 0, 0, 0, 0, 0]", fillcolor="#61e539"] ;
298 -> 302 ;
303 [label="gini = 0.0\nsamples = 1\nvalue = [0, 0, 0, 0, 0, 0, 2, 0, 0, 0, 0, 0, 0, 0\n0, 0, 0, 0, 0, 0, 0, 0]", fillcolor="#39e541"] ;
297 -> 303 ;
304 [label="precipitation <= 0.55\ngini = 0.84\nsamples = 20\nvalue = [0, 0, 1, 3, 5, 8, 4, 1, 4, 0, 4, 0, 1, 0\n0, 0, 0, 0, 0, 0, 0, 0]", fillcolor="#edfce8"] ;
296 -> 304 ;
305 [label="raceId <= 1.36\ngini = 0.81\nsamples = 18\nvalue = [0, 0, 1, 1, 5, 8, 4, 1, 1, 0, 4, 0, 1, 0\n0, 0, 0, 0, 0, 0, 0, 0]", fillcolor="#e8fbe3"] ;
304 -> 305 ;
306 [label="circuitId <= 1.84\ngini = 0.75\nsamples = 15\nvalue = [0, 0, 1, 1, 0, 8, 4, 0, 1, 0, 4, 0, 1, 0\n0, 0, 0, 0, 0, 0, 0, 0]", fillcolor="#d8f8ce"] ;
305 -> 306 ;
307 [label="gini = 0.69\nsamples = 11\nvalue = [0, 0, 0, 1, 0, 7, 1, 0, 1, 0, 4, 0, 1, 0\n0, 0, 0, 0, 0, 0, 0, 0]", fillcolor="#d4f8c9"] ;
306 -> 307 ;
308 [label="gini = 0.56\nsamples = 4\nvalue = [0, 0, 1, 0, 0, 1, 3, 0, 0, 0, 0, 0, 0, 0\n0, 0, 0, 0, 0, 0, 0, 0]", fillcolor="#9cf2a0"] ;
306 -> 308 ;
309 [label="constructorId <= 1.76\ngini = 0.28\nsamples = 3\nvalue = [0, 0, 0, 0, 5, 0, 0, 1, 0, 0, 0, 0, 0, 0\n0, 0, 0, 0, 0, 0, 0, 0]", fillcolor="#a5ea61"] ;
305 -> 309 ;
310 [label="gini = 0.0\nsamples = 1\nvalue = [0, 0, 0, 0, 0, 0, 0, 1, 0, 0, 0, 0, 0, 0\n0, 0, 0, 0, 0, 0, 0, 0]", fillcolor="#39e56f"] ;
309 -> 310 ;
311 [label="gini = 0.0\nsamples = 2\nvalue = [0, 0, 0, 0, 5, 0, 0, 0, 0, 0, 0, 0, 0, 0\n0, 0, 0, 0, 0, 0, 0, 0]", fillcolor="#8fe539"] ;
309 -> 311 ;
312 [label="grid <= -0.78\ngini = 0.48\nsamples = 2\nvalue = [0, 0, 0, 2, 0, 0, 0, 0, 3, 0, 0, 0, 0, 0\n0, 0, 0, 0, 0, 0, 0, 0]", fillcolor="#bdf6de"] ;
304 -> 312 ;
313 [label="gini = 0.0\nsamples = 1\nvalue = [0, 0, 0, 2, 0, 0, 0, 0, 0, 0, 0, 0, 0, 0\n0, 0, 0, 0, 0, 0, 0, 0]", fillcolor="#bde539"] ;
312 -> 313 ;
314 [label="gini = 0.0\nsamples = 1\nvalue = [0, 0, 0, 0, 0, 0, 0, 0, 3, 0, 0, 0, 0, 0\n0, 0, 0, 0, 0, 0, 0, 0]", fillcolor="#39e59d"] ;
312 -> 314 ;
315 [label="gini = 0.0\nsamples = 2\nvalue = [0, 0, 0, 0, 2, 0, 0, 0, 0, 0, 0, 0, 0, 0\n0, 0, 0, 0, 0, 0, 0, 0]", fillcolor="#8fe539"] ;
295 -> 315 ;
316 [label="gini = 0.0\nsamples = 2\nvalue = [0, 0, 0, 0, 0, 0, 0, 0, 0, 6, 0, 0, 0, 0\n0, 0, 0, 0, 0, 0, 0, 0]", fillcolor="#39e5ce"] ;
294 -> 316 ;
317 [label="raceId <= 0.99\ngini = 0.92\nsamples = 405\nvalue = [7, 8, 21, 26, 44, 51, 71, 76, 77, 58, 53, 39\n40, 29, 14, 11, 2, 1, 1, 0, 0, 0]", fillcolor="#ffffff"] ;
227 -> 317 ;
318 [label="constructorId <= -0.39\ngini = 0.91\nsamples = 292\nvalue = [1, 8, 18, 20, 38, 47, 58, 50, 62, 39, 34, 23\n32, 13, 5, 8, 1, 0, 1, 0, 0, 0]", fillcolor="#fdfffe"] ;
317 -> 318 ;
319 [label="precipitation <= 3.17\ngini = 0.9\nsamples = 211\nvalue = [0, 5, 10, 13, 35, 43, 37, 41, 47, 27, 26, 16\n10, 11, 3, 5, 0, 0, 1, 0, 0, 0]", fillcolor="#fcfffe"] ;
318 -> 319 ;
320 [label="driverId <= 0.67\ngini = 0.9\nsamples = 202\nvalue = [0, 5, 9, 12, 33, 41, 37, 34, 47, 27, 24, 16\n10, 11, 2, 5, 0, 0, 1, 0, 0, 0]", fillcolor="#fbfefd"] ;
319 -> 320 ;
321 [label="raceId <= -1.54\ngini = 0.9\nsamples = 192\nvalue = [0, 5, 9, 12, 31, 34, 37, 34, 47, 27, 19, 12\n10, 11, 2, 2, 0, 0, 1, 0, 0, 0]", fillcolor="#f7fefb"] ;
320 -> 321 ;
322 [label="temp <= -0.18\ngini = 0.86\nsamples = 31\nvalue = [0, 2, 6, 0, 4, 9, 3, 3, 14, 3, 2, 2, 2, 0\n1, 0, 0, 0, 0, 0, 0, 0]", fillcolor="#e7fcf3"] ;
321 -> 322 ;
323 [label="circuitId <= -0.59\ngini = 0.76\nsamples = 9\nvalue = [0, 2, 6, 0, 0, 2, 0, 0, 2, 2, 0, 0, 0, 0\n1, 0, 0, 0, 0, 0, 0, 0]", fillcolor="#f7f4c2"] ;
322 -> 323 ;
324 [label="gini = 0.58\nsamples = 5\nvalue = [0, 2, 6, 0, 0, 1, 0, 0, 0, 1, 0, 0, 0, 0\n0, 0, 0, 0, 0, 0, 0, 0]", fillcolor="#f2ee9c"] ;
323 -> 324 ;
325 [label="gini = 0.72\nsamples = 4\nvalue = [0, 0, 0, 0, 0, 1, 0, 0, 2, 1, 0, 0, 0, 0\n1, 0, 0, 0, 0, 0, 0, 0]", fillcolor="#cef8e6"] ;
323 -> 325 ;
326 [label="constructorId <= -0.76\ngini = 0.81\nsamples = 22\nvalue = [0, 0, 0, 0, 4, 7, 3, 3, 12, 1, 2, 2, 2, 0\n0, 0, 0, 0, 0, 0, 0, 0]", fillcolor="#ddfbee"] ;
322 -> 326 ;
327 [label="gini = 0.56\nsamples = 3\nvalue = [0, 0, 0, 0, 0, 0, 0, 3, 1, 0, 0, 1, 0, 0\n0, 0, 0, 0, 0, 0, 0, 0]", fillcolor="#9cf2b7"] ;
326 -> 327 ;
328 [label="gini = 0.79\nsamples = 19\nvalue = [0, 0, 0, 0, 4, 7, 3, 0, 11, 1, 2, 1, 2, 0\n0, 0, 0, 0, 0, 0, 0, 0]", fillcolor="#defbef"] ;
326 -> 328 ;
329 [label="constructorId <= -0.63\ngini = 0.9\nsamples = 161\nvalue = [0, 3, 3, 12, 27, 25, 34, 31, 33, 24, 17, 10, 8\n11, 1, 2, 0, 0, 1, 0, 0, 0]", fillcolor="#fefffe"] ;
321 -> 329 ;
330 [label="temp <= -0.82\ngini = 0.9\nsamples = 153\nvalue = [0, 3, 3, 12, 27, 25, 34, 31, 33, 21, 11, 10, 8\n11, 1, 2, 0, 0, 0, 0, 0, 0]", fillcolor="#fefffe"] ;
329 -> 330 ;
331 [label="gini = 0.87\nsamples = 41\nvalue = [0, 2, 2, 0, 7, 2, 8, 15, 17, 3, 5, 4, 4, 3\n1, 0, 0, 0, 0, 0, 0, 0]", fillcolor="#f8fefc"] ;
330 -> 331 ;
332 [label="gini = 0.89\nsamples = 112\nvalue = [0, 1, 1, 12, 20, 23, 26, 16, 16, 18, 6, 6, 4\n8, 0, 2, 0, 0, 0, 0, 0, 0]", fillcolor="#fbfefb"] ;
330 -> 332 ;
333 [label="precipitation <= 0.86\ngini = 0.54\nsamples = 8\nvalue = [0, 0, 0, 0, 0, 0, 0, 0, 0, 3, 6, 0, 0, 0\n0, 0, 0, 0, 1, 0, 0, 0]", fillcolor="#aaeaf4"] ;
329 -> 333 ;
334 [label="gini = 0.49\nsamples = 7\nvalue = [0, 0, 0, 0, 0, 0, 0, 0, 0, 2, 6, 0, 0, 0\n0, 0, 0, 0, 1, 0, 0, 0]", fillcolor="#8ee3f0"] ;
333 -> 334 ;
335 [label="gini = 0.0\nsamples = 1\nvalue = [0, 0, 0, 0, 0, 0, 0, 0, 0, 1, 0, 0, 0, 0\n0, 0, 0, 0, 0, 0, 0, 0]", fillcolor="#39e5ce"] ;
333 -> 335 ;
336 [label="driverId <= 0.68\ngini = 0.77\nsamples = 10\nvalue = [0, 0, 0, 0, 2, 7, 0, 0, 0, 0, 5, 4, 0, 0\n0, 3, 0, 0, 0, 0, 0, 0]", fillcolor="#ebfce6"] ;
320 -> 336 ;
337 [label="grid <= 1.05\ngini = 0.71\nsamples = 9\nvalue = [0, 0, 0, 0, 2, 7, 0, 0, 0, 0, 5, 4, 0, 0\n0, 0, 0, 0, 0, 0, 0, 0]", fillcolor="#e7fbe1"] ;
336 -> 337 ;
338 [label="raceId <= 0.34\ngini = 0.6\nsamples = 5\nvalue = [0, 0, 0, 0, 2, 7, 0, 0, 0, 0, 1, 2, 0, 0\n0, 0, 0, 0, 0, 0, 0, 0]", fillcolor="#b0f29c"] ;
337 -> 338 ;
339 [label="gini = 0.44\nsamples = 2\nvalue = [0, 0, 0, 0, 0, 0, 0, 0, 0, 0, 1, 2, 0, 0\n0, 0, 0, 0, 0, 0, 0, 0]", fillcolor="#9cd0f2"] ;
338 -> 339 ;
340 [label="gini = 0.35\nsamples = 3\nvalue = [0, 0, 0, 0, 2, 7, 0, 0, 0, 0, 0, 0, 0, 0\n0, 0, 0, 0, 0, 0, 0, 0]", fillcolor="#8eec72"] ;
338 -> 340 ;
341 [label="precipitation <= -0.43\ngini = 0.44\nsamples = 4\nvalue = [0, 0, 0, 0, 0, 0, 0, 0, 0, 0, 4, 2, 0, 0\n0, 0, 0, 0, 0, 0, 0, 0]", fillcolor="#9ce6f2"] ;
337 -> 341 ;
342 [label="gini = 0.0\nsamples = 2\nvalue = [0, 0, 0, 0, 0, 0, 0, 0, 0, 0, 3, 0, 0, 0\n0, 0, 0, 0, 0, 0, 0, 0]", fillcolor="#39cee5"] ;
341 -> 342 ;
343 [label="gini = 0.44\nsamples = 2\nvalue = [0, 0, 0, 0, 0, 0, 0, 0, 0, 0, 1, 2, 0, 0\n0, 0, 0, 0, 0, 0, 0, 0]", fillcolor="#9cd0f2"] ;
341 -> 343 ;
344 [label="gini = 0.0\nsamples = 1\nvalue = [0, 0, 0, 0, 0, 0, 0, 0, 0, 0, 0, 0, 0, 0\n0, 3, 0, 0, 0, 0, 0, 0]", fillcolor="#8f39e5"] ;
336 -> 344 ;
345 [label="circuitId <= 0.82\ngini = 0.75\nsamples = 9\nvalue = [0, 0, 1, 1, 2, 2, 0, 7, 0, 0, 2, 0, 0, 0\n1, 0, 0, 0, 0, 0, 0, 0]", fillcolor="#b8f6cc"] ;
319 -> 345 ;
346 [label="raceId <= 0.53\ngini = 0.48\nsamples = 5\nvalue = [0, 0, 1, 0, 0, 0, 0, 7, 0, 0, 1, 0, 0, 0\n1, 0, 0, 0, 0, 0, 0, 0]", fillcolor="#7bee9f"] ;
345 -> 346 ;
347 [label="raceId <= -0.58\ngini = 0.22\nsamples = 3\nvalue = [0, 0, 1, 0, 0, 0, 0, 7, 0, 0, 0, 0, 0, 0\n0, 0, 0, 0, 0, 0, 0, 0]", fillcolor="#55e984"] ;
346 -> 347 ;
348 [label="constructorId <= -0.67\ngini = 0.44\nsamples = 2\nvalue = [0, 0, 1, 0, 0, 0, 0, 2, 0, 0, 0, 0, 0, 0\n0, 0, 0, 0, 0, 0, 0, 0]", fillcolor="#9cf2b7"] ;
347 -> 348 ;
349 [label="gini = 0.0\nsamples = 1\nvalue = [0, 0, 1, 0, 0, 0, 0, 0, 0, 0, 0, 0, 0, 0\n0, 0, 0, 0, 0, 0, 0, 0]", fillcolor="#e5dc39"] ;
348 -> 349 ;
350 [label="gini = 0.0\nsamples = 1\nvalue = [0, 0, 0, 0, 0, 0, 0, 2, 0, 0, 0, 0, 0, 0\n0, 0, 0, 0, 0, 0, 0, 0]", fillcolor="#39e56f"] ;
348 -> 350 ;
351 [label="gini = 0.0\nsamples = 1\nvalue = [0, 0, 0, 0, 0, 0, 0, 5, 0, 0, 0, 0, 0, 0\n0, 0, 0, 0, 0, 0, 0, 0]", fillcolor="#39e56f"] ;
347 -> 351 ;
352 [label="grid <= 0.72\ngini = 0.5\nsamples = 2\nvalue = [0, 0, 0, 0, 0, 0, 0, 0, 0, 0, 1, 0, 0, 0\n1, 0, 0, 0, 0, 0, 0, 0]", fillcolor="#ffffff"] ;
346 -> 352 ;
353 [label="gini = 0.0\nsamples = 1\nvalue = [0, 0, 0, 0, 0, 0, 0, 0, 0, 0, 0, 0, 0, 0\n1, 0, 0, 0, 0, 0, 0, 0]", fillcolor="#6139e5"] ;
352 -> 353 ;
354 [label="gini = 0.0\nsamples = 1\nvalue = [0, 0, 0, 0, 0, 0, 0, 0, 0, 0, 1, 0, 0, 0\n0, 0, 0, 0, 0, 0, 0, 0]", fillcolor="#39cee5"] ;
352 -> 354 ;
355 [label="driverId <= 0.62\ngini = 0.72\nsamples = 4\nvalue = [0, 0, 0, 1, 2, 2, 0, 0, 0, 0, 1, 0, 0, 0\n0, 0, 0, 0, 0, 0, 0, 0]", fillcolor="#ffffff"] ;
345 -> 355 ;
356 [label="grid <= 0.47\ngini = 0.62\nsamples = 3\nvalue = [0, 0, 0, 1, 2, 0, 0, 0, 0, 0, 1, 0, 0, 0\n0, 0, 0, 0, 0, 0, 0, 0]", fillcolor="#daf6bd"] ;
355 -> 356 ;
357 [label="gini = 0.0\nsamples = 1\nvalue = [0, 0, 0, 0, 2, 0, 0, 0, 0, 0, 0, 0, 0, 0\n0, 0, 0, 0, 0, 0, 0, 0]", fillcolor="#8fe539"] ;
356 -> 357 ;
358 [label="constructorId <= -0.76\ngini = 0.5\nsamples = 2\nvalue = [0, 0, 0, 1, 0, 0, 0, 0, 0, 0, 1, 0, 0, 0\n0, 0, 0, 0, 0, 0, 0, 0]", fillcolor="#ffffff"] ;
356 -> 358 ;
359 [label="gini = 0.0\nsamples = 1\nvalue = [0, 0, 0, 0, 0, 0, 0, 0, 0, 0, 1, 0, 0, 0\n0, 0, 0, 0, 0, 0, 0, 0]", fillcolor="#39cee5"] ;
358 -> 359 ;
360 [label="gini = 0.0\nsamples = 1\nvalue = [0, 0, 0, 1, 0, 0, 0, 0, 0, 0, 0, 0, 0, 0\n0, 0, 0, 0, 0, 0, 0, 0]", fillcolor="#bde539"] ;
358 -> 360 ;
361 [label="gini = 0.0\nsamples = 1\nvalue = [0, 0, 0, 0, 0, 2, 0, 0, 0, 0, 0, 0, 0, 0\n0, 0, 0, 0, 0, 0, 0, 0]", fillcolor="#61e539"] ;
355 -> 361 ;
362 [label="constructorId <= 0.3\ngini = 0.9\nsamples = 81\nvalue = [1, 3, 8, 7, 3, 4, 21, 9, 15, 12, 8, 7, 22, 2\n2, 3, 1, 0, 0, 0, 0, 0]", fillcolor="#fdfeff"] ;
318 -> 362 ;
363 [label="temp <= 0.47\ngini = 0.74\nsamples = 14\nvalue = [0, 0, 0, 0, 0, 0, 0, 1, 2, 3, 3, 2, 12, 1\n0, 2, 0, 0, 0, 0, 0, 0]", fillcolor="#b2c7f5"] ;
362 -> 363 ;
364 [label="grid <= 1.14\ngini = 0.57\nsamples = 10\nvalue = [0, 0, 0, 0, 0, 0, 0, 1, 0, 1, 0, 2, 12, 1\n0, 2, 0, 0, 0, 0, 0, 0]", fillcolor="#8baaf0"] ;
363 -> 364 ;
365 [label="raceId <= 0.34\ngini = 0.48\nsamples = 9\nvalue = [0, 0, 0, 0, 0, 0, 0, 1, 0, 1, 0, 2, 12, 1\n0, 0, 0, 0, 0, 0, 0, 0]", fillcolor="#7b9fee"] ;
364 -> 365 ;
366 [label="raceId <= 0.28\ngini = 0.5\nsamples = 2\nvalue = [0, 0, 0, 0, 0, 0, 0, 1, 0, 0, 0, 0, 0, 1\n0, 0, 0, 0, 0, 0, 0, 0]", fillcolor="#ffffff"] ;
365 -> 366 ;
367 [label="gini = 0.0\nsamples = 1\nvalue = [0, 0, 0, 0, 0, 0, 0, 0, 0, 0, 0, 0, 0, 1\n0, 0, 0, 0, 0, 0, 0, 0]", fillcolor="#3941e5"] ;
366 -> 367 ;
368 [label="gini = 0.0\nsamples = 1\nvalue = [0, 0, 0, 0, 0, 0, 0, 1, 0, 0, 0, 0, 0, 0\n0, 0, 0, 0, 0, 0, 0, 0]", fillcolor="#39e56f"] ;
366 -> 368 ;
369 [label="circuitId <= -0.57\ngini = 0.34\nsamples = 7\nvalue = [0, 0, 0, 0, 0, 0, 0, 0, 0, 1, 0, 2, 12, 0\n0, 0, 0, 0, 0, 0, 0, 0]", fillcolor="#6790eb"] ;
365 -> 369 ;
370 [label="gini = 0.0\nsamples = 2\nvalue = [0, 0, 0, 0, 0, 0, 0, 0, 0, 0, 0, 0, 7, 0\n0, 0, 0, 0, 0, 0, 0, 0]", fillcolor="#396fe5"] ;
369 -> 370 ;
371 [label="gini = 0.53\nsamples = 5\nvalue = [0, 0, 0, 0, 0, 0, 0, 0, 0, 1, 0, 2, 5, 0\n0, 0, 0, 0, 0, 0, 0, 0]", fillcolor="#9cb7f2"] ;
369 -> 371 ;
372 [label="gini = 0.0\nsamples = 1\nvalue = [0, 0, 0, 0, 0, 0, 0, 0, 0, 0, 0, 0, 0, 0\n0, 2, 0, 0, 0, 0, 0, 0]", fillcolor="#8f39e5"] ;
364 -> 372 ;
373 [label="circuitId <= -0.67\ngini = 0.65\nsamples = 4\nvalue = [0, 0, 0, 0, 0, 0, 0, 0, 2, 2, 3, 0, 0, 0\n0, 0, 0, 0, 0, 0, 0, 0]", fillcolor="#d7f5fa"] ;
363 -> 373 ;
374 [label="gini = 0.0\nsamples = 2\nvalue = [0, 0, 0, 0, 0, 0, 0, 0, 0, 0, 3, 0, 0, 0\n0, 0, 0, 0, 0, 0, 0, 0]", fillcolor="#39cee5"] ;
373 -> 374 ;
375 [label="raceId <= 0.55\ngini = 0.5\nsamples = 2\nvalue = [0, 0, 0, 0, 0, 0, 0, 0, 2, 2, 0, 0, 0, 0\n0, 0, 0, 0, 0, 0, 0, 0]", fillcolor="#ffffff"] ;
373 -> 375 ;
376 [label="gini = 0.0\nsamples = 1\nvalue = [0, 0, 0, 0, 0, 0, 0, 0, 0, 2, 0, 0, 0, 0\n0, 0, 0, 0, 0, 0, 0, 0]", fillcolor="#39e5ce"] ;
375 -> 376 ;
377 [label="gini = 0.0\nsamples = 1\nvalue = [0, 0, 0, 0, 0, 0, 0, 0, 2, 0, 0, 0, 0, 0\n0, 0, 0, 0, 0, 0, 0, 0]", fillcolor="#39e59d"] ;
375 -> 377 ;
378 [label="driverId <= 0.62\ngini = 0.9\nsamples = 67\nvalue = [1, 3, 8, 7, 3, 4, 21, 8, 13, 9, 5, 5, 10, 1\n2, 1, 1, 0, 0, 0, 0, 0]", fillcolor="#edfdee"] ;
362 -> 378 ;
379 [label="raceId <= -1.56\ngini = 0.88\nsamples = 49\nvalue = [1, 3, 6, 7, 2, 1, 19, 7, 3, 7, 1, 3, 10, 1\n1, 1, 1, 0, 0, 0, 0, 0]", fillcolor="#e3fbe4"] ;
378 -> 379 ;
380 [label="constructorId <= 1.23\ngini = 0.68\nsamples = 7\nvalue = [0, 1, 1, 0, 0, 0, 0, 0, 0, 0, 0, 2, 5, 0\n0, 1, 0, 0, 0, 0, 0, 0]", fillcolor="#b5c9f5"] ;
379 -> 380 ;
381 [label="grid <= 0.72\ngini = 0.5\nsamples = 2\nvalue = [0, 1, 1, 0, 0, 0, 0, 0, 0, 0, 0, 0, 0, 0\n0, 0, 0, 0, 0, 0, 0, 0]", fillcolor="#ffffff"] ;
380 -> 381 ;
382 [label="gini = 0.0\nsamples = 1\nvalue = [0, 1, 0, 0, 0, 0, 0, 0, 0, 0, 0, 0, 0, 0\n0, 0, 0, 0, 0, 0, 0, 0]", fillcolor="#e5ae39"] ;
381 -> 382 ;
383 [label="gini = 0.0\nsamples = 1\nvalue = [0, 0, 1, 0, 0, 0, 0, 0, 0, 0, 0, 0, 0, 0\n0, 0, 0, 0, 0, 0, 0, 0]", fillcolor="#e5dc39"] ;
381 -> 383 ;
384 [label="grid <= 1.55\ngini = 0.53\nsamples = 5\nvalue = [0, 0, 0, 0, 0, 0, 0, 0, 0, 0, 0, 2, 5, 0\n0, 1, 0, 0, 0, 0, 0, 0]", fillcolor="#9cb7f2"] ;
380 -> 384 ;
385 [label="gini = 0.62\nsamples = 3\nvalue = [0, 0, 0, 0, 0, 0, 0, 0, 0, 0, 0, 2, 1, 0\n0, 1, 0, 0, 0, 0, 0, 0]", fillcolor="#bddff6"] ;
384 -> 385 ;
386 [label="gini = 0.0\nsamples = 2\nvalue = [0, 0, 0, 0, 0, 0, 0, 0, 0, 0, 0, 0, 4, 0\n0, 0, 0, 0, 0, 0, 0, 0]", fillcolor="#396fe5"] ;
384 -> 386 ;
387 [label="driverId <= -1.64\ngini = 0.86\nsamples = 42\nvalue = [1, 2, 5, 7, 2, 1, 19, 7, 3, 7, 1, 1, 5, 1\n1, 0, 1, 0, 0, 0, 0, 0]", fillcolor="#d5fad7"] ;
379 -> 387 ;
388 [label="raceId <= -0.46\ngini = 0.69\nsamples = 7\nvalue = [1, 0, 2, 4, 0, 0, 2, 0, 0, 0, 0, 0, 0, 0\n0, 0, 0, 0, 0, 0, 0, 0]", fillcolor="#ecf8c6"] ;
387 -> 388 ;
389 [label="gini = 0.44\nsamples = 3\nvalue = [0, 0, 1, 0, 0, 0, 2, 0, 0, 0, 0, 0, 0, 0\n0, 0, 0, 0, 0, 0, 0, 0]", fillcolor="#9cf2a0"] ;
388 -> 389 ;
390 [label="gini = 0.5\nsamples = 4\nvalue = [1, 0, 1, 4, 0, 0, 0, 0, 0, 0, 0, 0, 0, 0\n0, 0, 0, 0, 0, 0, 0, 0]", fillcolor="#d7ef88"] ;
388 -> 390 ;
391 [label="temp <= -1.12\ngini = 0.85\nsamples = 35\nvalue = [0, 2, 3, 3, 2, 1, 17, 7, 3, 7, 1, 1, 5, 1\n1, 0, 1, 0, 0, 0, 0, 0]", fillcolor="#d6fad7"] ;
387 -> 391 ;
392 [label="gini = 0.8\nsamples = 9\nvalue = [0, 0, 0, 2, 0, 0, 0, 1, 1, 4, 0, 0, 3, 1\n0, 0, 1, 0, 0, 0, 0, 0]", fillcolor="#ebfcfa"] ;
391 -> 392 ;
393 [label="gini = 0.79\nsamples = 26\nvalue = [0, 2, 3, 1, 2, 1, 17, 6, 2, 3, 1, 1, 2, 0\n1, 0, 0, 0, 0, 0, 0, 0]", fillcolor="#c2f7c5"] ;
391 -> 393 ;
394 [label="raceId <= 0.91\ngini = 0.82\nsamples = 18\nvalue = [0, 0, 2, 0, 1, 3, 2, 1, 10, 2, 4, 2, 0, 0\n1, 0, 0, 0, 0, 0, 0, 0]", fillcolor="#cef8e6"] ;
378 -> 394 ;
395 [label="driverId <= 0.66\ngini = 0.86\nsamples = 15\nvalue = [0, 0, 2, 0, 1, 3, 2, 1, 5, 2, 4, 1, 0, 0\n1, 0, 0, 0, 0, 0, 0, 0]", fillcolor="#f4fefa"] ;
394 -> 395 ;
396 [label="temp <= 0.21\ngini = 0.82\nsamples = 11\nvalue = [0, 0, 2, 0, 1, 0, 1, 0, 5, 2, 2, 1, 0, 0\n1, 0, 0, 0, 0, 0, 0, 0]", fillcolor="#d1f9e8"] ;
395 -> 396 ;
397 [label="gini = 0.62\nsamples = 7\nvalue = [0, 0, 0, 0, 0, 0, 0, 0, 5, 0, 2, 1, 0, 0\n1, 0, 0, 0, 0, 0, 0, 0]", fillcolor="#aaf4d5"] ;
396 -> 397 ;
398 [label="gini = 0.72\nsamples = 4\nvalue = [0, 0, 2, 0, 1, 0, 1, 0, 0, 2, 0, 0, 0, 0\n0, 0, 0, 0, 0, 0, 0, 0]", fillcolor="#ffffff"] ;
396 -> 398 ;
399 [label="raceId <= 0.77\ngini = 0.69\nsamples = 4\nvalue = [0, 0, 0, 0, 0, 3, 1, 1, 0, 0, 2, 0, 0, 0\n0, 0, 0, 0, 0, 0, 0, 0]", fillcolor="#dffad7"] ;
395 -> 399 ;
400 [label="gini = 0.38\nsamples = 2\nvalue = [0, 0, 0, 0, 0, 3, 1, 0, 0, 0, 0, 0, 0, 0\n0, 0, 0, 0, 0, 0, 0, 0]", fillcolor="#96ee7b"] ;
399 -> 400 ;
401 [label="gini = 0.44\nsamples = 2\nvalue = [0, 0, 0, 0, 0, 0, 0, 1, 0, 0, 2, 0, 0, 0\n0, 0, 0, 0, 0, 0, 0, 0]", fillcolor="#9ce6f2"] ;
399 -> 401 ;
402 [label="circuitId <= -0.55\ngini = 0.28\nsamples = 3\nvalue = [0, 0, 0, 0, 0, 0, 0, 0, 5, 0, 0, 1, 0, 0\n0, 0, 0, 0, 0, 0, 0, 0]", fillcolor="#61eab1"] ;
394 -> 402 ;
403 [label="gini = 0.0\nsamples = 1\nvalue = [0, 0, 0, 0, 0, 0, 0, 0, 4, 0, 0, 0, 0, 0\n0, 0, 0, 0, 0, 0, 0, 0]", fillcolor="#39e59d"] ;
402 -> 403 ;
404 [label="constructorId <= 1.76\ngini = 0.5\nsamples = 2\nvalue = [0, 0, 0, 0, 0, 0, 0, 0, 1, 0, 0, 1, 0, 0\n0, 0, 0, 0, 0, 0, 0, 0]", fillcolor="#ffffff"] ;
402 -> 404 ;
405 [label="gini = 0.0\nsamples = 1\nvalue = [0, 0, 0, 0, 0, 0, 0, 0, 0, 0, 0, 1, 0, 0\n0, 0, 0, 0, 0, 0, 0, 0]", fillcolor="#39a0e5"] ;
404 -> 405 ;
406 [label="gini = 0.0\nsamples = 1\nvalue = [0, 0, 0, 0, 0, 0, 0, 0, 1, 0, 0, 0, 0, 0\n0, 0, 0, 0, 0, 0, 0, 0]", fillcolor="#39e59d"] ;
404 -> 406 ;
407 [label="constructorId <= 1.76\ngini = 0.91\nsamples = 113\nvalue = [6, 0, 3, 6, 6, 4, 13, 26, 15, 19, 19, 16, 8\n16, 9, 3, 1, 1, 0, 0, 0, 0]", fillcolor="#f6fef8"] ;
317 -> 407 ;
408 [label="raceId <= 1.03\ngini = 0.91\nsamples = 95\nvalue = [3, 0, 3, 5, 6, 3, 6, 23, 10, 18, 13, 16, 8\n16, 9, 3, 1, 1, 0, 0, 0, 0]", fillcolor="#f7fef9"] ;
407 -> 408 ;
409 [label="grid <= 1.3\ngini = 0.78\nsamples = 5\nvalue = [0, 0, 0, 0, 1, 0, 0, 0, 0, 2, 3, 2, 0, 0\n0, 2, 0, 0, 0, 0, 0, 0]", fillcolor="#e6f9fc"] ;
408 -> 409 ;
410 [label="constructorId <= 0.3\ngini = 0.73\nsamples = 4\nvalue = [0, 0, 0, 0, 1, 0, 0, 0, 0, 2, 0, 2, 0, 0\n0, 2, 0, 0, 0, 0, 0, 0]", fillcolor="#ffffff"] ;
409 -> 410 ;
411 [label="driverId <= -0.48\ngini = 0.64\nsamples = 3\nvalue = [0, 0, 0, 0, 1, 0, 0, 0, 0, 2, 0, 0, 0, 0\n0, 2, 0, 0, 0, 0, 0, 0]", fillcolor="#ffffff"] ;
410 -> 411 ;
412 [label="gini = 0.0\nsamples = 1\nvalue = [0, 0, 0, 0, 0, 0, 0, 0, 0, 2, 0, 0, 0, 0\n0, 0, 0, 0, 0, 0, 0, 0]", fillcolor="#39e5ce"] ;
411 -> 412 ;
413 [label="driverId <= 0.68\ngini = 0.44\nsamples = 2\nvalue = [0, 0, 0, 0, 1, 0, 0, 0, 0, 0, 0, 0, 0, 0\n0, 2, 0, 0, 0, 0, 0, 0]", fillcolor="#c79cf2"] ;
411 -> 413 ;
414 [label="gini = 0.0\nsamples = 1\nvalue = [0, 0, 0, 0, 1, 0, 0, 0, 0, 0, 0, 0, 0, 0\n0, 0, 0, 0, 0, 0, 0, 0]", fillcolor="#8fe539"] ;
413 -> 414 ;
415 [label="gini = 0.0\nsamples = 1\nvalue = [0, 0, 0, 0, 0, 0, 0, 0, 0, 0, 0, 0, 0, 0\n0, 2, 0, 0, 0, 0, 0, 0]", fillcolor="#8f39e5"] ;
413 -> 415 ;
416 [label="gini = 0.0\nsamples = 1\nvalue = [0, 0, 0, 0, 0, 0, 0, 0, 0, 0, 0, 2, 0, 0\n0, 0, 0, 0, 0, 0, 0, 0]", fillcolor="#39a0e5"] ;
410 -> 416 ;
417 [label="gini = 0.0\nsamples = 1\nvalue = [0, 0, 0, 0, 0, 0, 0, 0, 0, 0, 3, 0, 0, 0\n0, 0, 0, 0, 0, 0, 0, 0]", fillcolor="#39cee5"] ;
409 -> 417 ;
418 [label="circuitId <= -0.63\ngini = 0.91\nsamples = 90\nvalue = [3, 0, 3, 5, 5, 3, 6, 23, 10, 16, 10, 14, 8\n16, 9, 1, 1, 1, 0, 0, 0, 0]", fillcolor="#f3fdf6"] ;
408 -> 418 ;
419 [label="driverId <= -1.62\ngini = 0.83\nsamples = 28\nvalue = [0, 0, 0, 1, 2, 0, 1, 14, 2, 10, 4, 3, 3, 2\n3, 0, 0, 0, 0, 0, 0, 0]", fillcolor="#e8fcef"] ;
418 -> 419 ;
420 [label="gini = 0.0\nsamples = 1\nvalue = [0, 0, 0, 0, 0, 0, 0, 4, 0, 0, 0, 0, 0, 0\n0, 0, 0, 0, 0, 0, 0, 0]", fillcolor="#39e56f"] ;
419 -> 420 ;
421 [label="temp <= 0.31\ngini = 0.85\nsamples = 27\nvalue = [0, 0, 0, 1, 2, 0, 1, 10, 2, 10, 4, 3, 3, 2\n3, 0, 0, 0, 0, 0, 0, 0]", fillcolor="#ffffff"] ;
419 -> 421 ;
422 [label="constructorId <= -0.76\ngini = 0.87\nsamples = 24\nvalue = [0, 0, 0, 1, 2, 0, 1, 5, 2, 9, 4, 3, 3, 2\n3, 0, 0, 0, 0, 0, 0, 0]", fillcolor="#e5fcf8"] ;
421 -> 422 ;
423 [label="gini = 0.61\nsamples = 4\nvalue = [0, 0, 0, 0, 0, 0, 0, 0, 0, 0, 1, 0, 3, 0\n3, 0, 0, 0, 0, 0, 0, 0]", fillcolor="#ffffff"] ;
422 -> 423 ;
424 [label="gini = 0.82\nsamples = 20\nvalue = [0, 0, 0, 1, 2, 0, 1, 5, 2, 9, 3, 3, 0, 2\n0, 0, 0, 0, 0, 0, 0, 0]", fillcolor="#ddfaf6"] ;
422 -> 424 ;
425 [label="precipitation <= -0.48\ngini = 0.28\nsamples = 3\nvalue = [0, 0, 0, 0, 0, 0, 0, 5, 0, 1, 0, 0, 0, 0\n0, 0, 0, 0, 0, 0, 0, 0]", fillcolor="#61ea8c"] ;
421 -> 425 ;
426 [label="gini = 0.0\nsamples = 1\nvalue = [0, 0, 0, 0, 0, 0, 0, 3, 0, 0, 0, 0, 0, 0\n0, 0, 0, 0, 0, 0, 0, 0]", fillcolor="#39e56f"] ;
425 -> 426 ;
427 [label="gini = 0.44\nsamples = 2\nvalue = [0, 0, 0, 0, 0, 0, 0, 2, 0, 1, 0, 0, 0, 0\n0, 0, 0, 0, 0, 0, 0, 0]", fillcolor="#9cf2b7"] ;
425 -> 427 ;
428 [label="constructorId <= 1.25\ngini = 0.91\nsamples = 62\nvalue = [3, 0, 3, 4, 3, 3, 5, 9, 8, 6, 6, 11, 5, 14\n6, 1, 1, 1, 0, 0, 0, 0]", fillcolor="#f7f8fe"] ;
418 -> 428 ;
429 [label="temp <= -1.35\ngini = 0.9\nsamples = 47\nvalue = [3, 0, 3, 4, 3, 3, 3, 7, 5, 6, 5, 9, 3, 13\n0, 1, 0, 0, 0, 0, 0, 0]", fillcolor="#f2f2fd"] ;
428 -> 429 ;
430 [label="gini = 0.0\nsamples = 1\nvalue = [0, 0, 0, 0, 2, 0, 0, 0, 0, 0, 0, 0, 0, 0\n0, 0, 0, 0, 0, 0, 0, 0]", fillcolor="#8fe539"] ;
429 -> 430 ;
431 [label="temp <= 1.32\ngini = 0.9\nsamples = 46\nvalue = [3, 0, 3, 4, 1, 3, 3, 7, 5, 6, 5, 9, 3, 13\n0, 1, 0, 0, 0, 0, 0, 0]", fillcolor="#f1f2fd"] ;
429 -> 431 ;
432 [label="gini = 0.9\nsamples = 36\nvalue = [3, 0, 3, 4, 0, 3, 3, 4, 3, 6, 3, 8, 1, 8\n0, 1, 0, 0, 0, 0, 0, 0]", fillcolor="#ffffff"] ;
431 -> 432 ;
433 [label="gini = 0.81\nsamples = 10\nvalue = [0, 0, 0, 0, 1, 0, 0, 3, 2, 0, 2, 1, 2, 5\n0, 0, 0, 0, 0, 0, 0, 0]", fillcolor="#e1e2fb"] ;
431 -> 433 ;
434 [label="precipitation <= -0.42\ngini = 0.85\nsamples = 15\nvalue = [0, 0, 0, 0, 0, 0, 2, 2, 3, 0, 1, 2, 2, 1\n6, 0, 1, 1, 0, 0, 0, 0]", fillcolor="#e5defb"] ;
428 -> 434 ;
435 [label="gini = 0.0\nsamples = 1\nvalue = [0, 0, 0, 0, 0, 0, 0, 2, 0, 0, 0, 0, 0, 0\n0, 0, 0, 0, 0, 0, 0, 0]", fillcolor="#39e56f"] ;
434 -> 435 ;
436 [label="temp <= 1.57\ngini = 0.83\nsamples = 14\nvalue = [0, 0, 0, 0, 0, 0, 2, 0, 3, 0, 1, 2, 2, 1\n6, 0, 1, 1, 0, 0, 0, 0]", fillcolor="#e1dafa"] ;
434 -> 436 ;
437 [label="gini = 0.8\nsamples = 13\nvalue = [0, 0, 0, 0, 0, 0, 2, 0, 3, 0, 1, 0, 2, 1\n6, 0, 1, 1, 0, 0, 0, 0]", fillcolor="#ddd5f9"] ;
436 -> 437 ;
438 [label="gini = 0.0\nsamples = 1\nvalue = [0, 0, 0, 0, 0, 0, 0, 0, 0, 0, 0, 2, 0, 0\n0, 0, 0, 0, 0, 0, 0, 0]", fillcolor="#39a0e5"] ;
436 -> 438 ;
439 [label="circuitId <= -0.77\ngini = 0.82\nsamples = 18\nvalue = [3, 0, 0, 1, 0, 1, 7, 3, 5, 1, 6, 0, 0, 0\n0, 0, 0, 0, 0, 0, 0, 0]", fillcolor="#f6fef6"] ;
407 -> 439 ;
440 [label="temp <= -0.18\ngini = 0.28\nsamples = 4\nvalue = [0, 0, 0, 0, 0, 0, 5, 0, 1, 0, 0, 0, 0, 0\n0, 0, 0, 0, 0, 0, 0, 0]", fillcolor="#61ea67"] ;
439 -> 440 ;
441 [label="gini = 0.0\nsamples = 1\nvalue = [0, 0, 0, 0, 0, 0, 2, 0, 0, 0, 0, 0, 0, 0\n0, 0, 0, 0, 0, 0, 0, 0]", fillcolor="#39e541"] ;
440 -> 441 ;
442 [label="raceId <= 1.36\ngini = 0.38\nsamples = 3\nvalue = [0, 0, 0, 0, 0, 0, 3, 0, 1, 0, 0, 0, 0, 0\n0, 0, 0, 0, 0, 0, 0, 0]", fillcolor="#7bee80"] ;
440 -> 442 ;
443 [label="driverId <= -0.49\ngini = 0.5\nsamples = 2\nvalue = [0, 0, 0, 0, 0, 0, 1, 0, 1, 0, 0, 0, 0, 0\n0, 0, 0, 0, 0, 0, 0, 0]", fillcolor="#ffffff"] ;
442 -> 443 ;
444 [label="gini = 0.0\nsamples = 1\nvalue = [0, 0, 0, 0, 0, 0, 0, 0, 1, 0, 0, 0, 0, 0\n0, 0, 0, 0, 0, 0, 0, 0]", fillcolor="#39e59d"] ;
443 -> 444 ;
445 [label="gini = 0.0\nsamples = 1\nvalue = [0, 0, 0, 0, 0, 0, 1, 0, 0, 0, 0, 0, 0, 0\n0, 0, 0, 0, 0, 0, 0, 0]", fillcolor="#39e541"] ;
443 -> 445 ;
446 [label="gini = 0.0\nsamples = 1\nvalue = [0, 0, 0, 0, 0, 0, 2, 0, 0, 0, 0, 0, 0, 0\n0, 0, 0, 0, 0, 0, 0, 0]", fillcolor="#39e541"] ;
442 -> 446 ;
447 [label="circuitId <= -0.63\ngini = 0.83\nsamples = 14\nvalue = [3, 0, 0, 1, 0, 1, 2, 3, 4, 1, 6, 0, 0, 0\n0, 0, 0, 0, 0, 0, 0, 0]", fillcolor="#e8f9fc"] ;
439 -> 447 ;
448 [label="gini = 0.0\nsamples = 1\nvalue = [0, 0, 0, 0, 0, 0, 0, 0, 3, 0, 0, 0, 0, 0\n0, 0, 0, 0, 0, 0, 0, 0]", fillcolor="#39e59d"] ;
447 -> 448 ;
449 [label="circuitId <= -0.55\ngini = 0.81\nsamples = 13\nvalue = [3, 0, 0, 1, 0, 1, 2, 3, 1, 1, 6, 0, 0, 0\n0, 0, 0, 0, 0, 0, 0, 0]", fillcolor="#d7f5fa"] ;
447 -> 449 ;
450 [label="grid <= -0.28\ngini = 0.38\nsamples = 2\nvalue = [3, 0, 0, 1, 0, 0, 0, 0, 0, 0, 0, 0, 0, 0\n0, 0, 0, 0, 0, 0, 0, 0]", fillcolor="#eeab7b"] ;
449 -> 450 ;
451 [label="gini = 0.0\nsamples = 1\nvalue = [3, 0, 0, 0, 0, 0, 0, 0, 0, 0, 0, 0, 0, 0\n0, 0, 0, 0, 0, 0, 0, 0]", fillcolor="#e58139"] ;
450 -> 451 ;
452 [label="gini = 0.0\nsamples = 1\nvalue = [0, 0, 0, 1, 0, 0, 0, 0, 0, 0, 0, 0, 0, 0\n0, 0, 0, 0, 0, 0, 0, 0]", fillcolor="#bde539"] ;
450 -> 452 ;
453 [label="temp <= 0.12\ngini = 0.73\nsamples = 11\nvalue = [0, 0, 0, 0, 0, 1, 2, 3, 1, 1, 6, 0, 0, 0\n0, 0, 0, 0, 0, 0, 0, 0]", fillcolor="#c9f2f8"] ;
449 -> 453 ;
454 [label="grid <= 0.8\ngini = 0.28\nsamples = 3\nvalue = [0, 0, 0, 0, 0, 0, 1, 0, 0, 0, 5, 0, 0, 0\n0, 0, 0, 0, 0, 0, 0, 0]", fillcolor="#61d8ea"] ;
453 -> 454 ;
455 [label="gini = 0.0\nsamples = 2\nvalue = [0, 0, 0, 0, 0, 0, 0, 0, 0, 0, 5, 0, 0, 0\n0, 0, 0, 0, 0, 0, 0, 0]", fillcolor="#39cee5"] ;
454 -> 455 ;
456 [label="gini = 0.0\nsamples = 1\nvalue = [0, 0, 0, 0, 0, 0, 1, 0, 0, 0, 0, 0, 0, 0\n0, 0, 0, 0, 0, 0, 0, 0]", fillcolor="#39e541"] ;
454 -> 456 ;
457 [label="raceId <= 1.42\ngini = 0.78\nsamples = 8\nvalue = [0, 0, 0, 0, 0, 1, 1, 3, 1, 1, 1, 0, 0, 0\n0, 0, 0, 0, 0, 0, 0, 0]", fillcolor="#c6f8d6"] ;
453 -> 457 ;
458 [label="gini = 0.56\nsamples = 5\nvalue = [0, 0, 0, 0, 0, 0, 0, 3, 1, 0, 1, 0, 0, 0\n0, 0, 0, 0, 0, 0, 0, 0]", fillcolor="#9cf2b7"] ;
457 -> 458 ;
459 [label="gini = 0.67\nsamples = 3\nvalue = [0, 0, 0, 0, 0, 1, 1, 0, 0, 1, 0, 0, 0, 0\n0, 0, 0, 0, 0, 0, 0, 0]", fillcolor="#ffffff"] ;
457 -> 459 ;
460 [label="driverId <= 0.68\ngini = 0.92\nsamples = 618\nvalue = [0, 0, 0, 4, 5, 13, 41, 40, 48, 79, 86, 77, 92\n91, 94, 95, 84, 68, 24, 14, 9, 1]", fillcolor="#ffffff"] ;
226 -> 460 ;
461 [label="statusId <= 0.61\ngini = 0.92\nsamples = 564\nvalue = [0, 0, 0, 4, 5, 12, 41, 40, 47, 77, 86, 77, 86\n85, 90, 80, 70, 44, 17, 11, 9, 1]", fillcolor="#fefeff"] ;
460 -> 461 ;
462 [label="circuitId <= 1.84\ngini = 0.92\nsamples = 458\nvalue = [0, 0, 0, 4, 5, 12, 39, 38, 47, 77, 83, 70, 76\n76, 66, 54, 44, 19, 3, 5, 6, 1]", fillcolor="#fdffff"] ;
461 -> 462 ;
463 [label="grid <= 0.55\ngini = 0.92\nsamples = 438\nvalue = [0, 0, 0, 4, 5, 12, 39, 37, 46, 77, 83, 66, 64\n73, 62, 52, 43, 19, 3, 5, 6, 1]", fillcolor="#fdffff"] ;
462 -> 463 ;
464 [label="circuitId <= 1.12\ngini = 0.9\nsamples = 230\nvalue = [0, 0, 0, 4, 5, 11, 36, 32, 40, 63, 46, 32, 25\n17, 16, 21, 6, 12, 0, 1, 0, 0]", fillcolor="#f5fefc"] ;
463 -> 464 ;
465 [label="driverId <= 0.59\ngini = 0.9\nsamples = 190\nvalue = [0, 0, 0, 4, 5, 9, 27, 23, 34, 57, 37, 18, 23\n15, 12, 21, 6, 12, 0, 1, 0, 0]", fillcolor="#f0fdfb"] ;
464 -> 465 ;
466 [label="temp <= -0.18\ngini = 0.91\nsamples = 95\nvalue = [0, 0, 0, 2, 1, 6, 14, 16, 14, 10, 24, 13, 12\n6, 6, 10, 6, 9, 0, 0, 0, 0]", fillcolor="#f3fcfd"] ;
465 -> 466 ;
467 [label="driverId <= -0.33\ngini = 0.89\nsamples = 40\nvalue = [0, 0, 0, 0, 0, 0, 6, 8, 12, 2, 6, 2, 10, 3\n4, 4, 4, 3, 0, 0, 0, 0]", fillcolor="#f8fefb"] ;
466 -> 467 ;
468 [label="gini = 0.87\nsamples = 23\nvalue = [0, 0, 0, 0, 0, 0, 1, 0, 4, 1, 6, 0, 7, 1\n4, 4, 4, 2, 0, 0, 0, 0]", fillcolor="#f8fafe"] ;
467 -> 468 ;
469 [label="gini = 0.81\nsamples = 17\nvalue = [0, 0, 0, 0, 0, 0, 5, 8, 8, 1, 0, 2, 3, 2\n0, 0, 0, 1, 0, 0, 0, 0]", fillcolor="#ffffff"] ;
467 -> 469 ;
470 [label="raceId <= 0.71\ngini = 0.89\nsamples = 55\nvalue = [0, 0, 0, 2, 1, 6, 8, 8, 2, 8, 18, 11, 2, 3\n2, 6, 2, 6, 0, 0, 0, 0]", fillcolor="#ecfafd"] ;
466 -> 470 ;
471 [label="gini = 0.88\nsamples = 49\nvalue = [0, 0, 0, 2, 1, 6, 8, 8, 2, 8, 17, 8, 2, 3\n1, 6, 2, 0, 0, 0, 0, 0]", fillcolor="#e4f8fb"] ;
470 -> 471 ;
472 [label="gini = 0.61\nsamples = 6\nvalue = [0, 0, 0, 0, 0, 0, 0, 0, 0, 0, 1, 3, 0, 0\n1, 0, 0, 6, 0, 0, 0, 0]", fillcolor="#f5b5f2"] ;
470 -> 472 ;
473 [label="circuitId <= 0.08\ngini = 0.86\nsamples = 95\nvalue = [0, 0, 0, 2, 4, 3, 13, 7, 20, 47, 13, 5, 11\n9, 6, 11, 0, 3, 0, 1, 0, 0]", fillcolor="#d7faf5"] ;
465 -> 473 ;
474 [label="driverId <= 0.62\ngini = 0.84\nsamples = 79\nvalue = [0, 0, 0, 2, 1, 2, 11, 7, 13, 44, 12, 5, 10\n9, 5, 6, 0, 3, 0, 1, 0, 0]", fillcolor="#cbf8f2"] ;
473 -> 474 ;
475 [label="gini = 0.83\nsamples = 17\nvalue = [0, 0, 0, 0, 0, 0, 1, 0, 7, 5, 2, 0, 5, 3\n0, 6, 0, 0, 0, 1, 0, 0]", fillcolor="#f7fefb"] ;
474 -> 475 ;
476 [label="gini = 0.81\nsamples = 62\nvalue = [0, 0, 0, 2, 1, 2, 10, 7, 6, 39, 10, 5, 5, 6\n5, 0, 0, 3, 0, 0, 0, 0]", fillcolor="#c0f7ef"] ;
474 -> 476 ;
477 [label="raceId <= 1.09\ngini = 0.83\nsamples = 16\nvalue = [0, 0, 0, 0, 3, 1, 2, 0, 7, 3, 1, 0, 1, 0\n1, 5, 0, 0, 0, 0, 0, 0]", fillcolor="#eafcf5"] ;
473 -> 477 ;
478 [label="gini = 0.8\nsamples = 11\nvalue = [0, 0, 0, 0, 3, 1, 0, 0, 1, 1, 1, 0, 1, 0\n1, 5, 0, 0, 0, 0, 0, 0]", fillcolor="#ebdbfa"] ;
477 -> 478 ;
479 [label="gini = 0.56\nsamples = 5\nvalue = [0, 0, 0, 0, 0, 0, 2, 0, 6, 2, 0, 0, 0, 0\n0, 0, 0, 0, 0, 0, 0, 0]", fillcolor="#9cf2ce"] ;
477 -> 479 ;
480 [label="circuitId <= 1.74\ngini = 0.86\nsamples = 40\nvalue = [0, 0, 0, 0, 0, 2, 9, 9, 6, 6, 9, 14, 2, 2\n4, 0, 0, 0, 0, 0, 0, 0]", fillcolor="#edf6fd"] ;
464 -> 480 ;
481 [label="driverId <= 0.6\ngini = 0.7\nsamples = 9\nvalue = [0, 0, 0, 0, 0, 0, 1, 6, 0, 0, 2, 6, 0, 0\n1, 0, 0, 0, 0, 0, 0, 0]", fillcolor="#ffffff"] ;
480 -> 481 ;
482 [label="precipitation <= 0.52\ngini = 0.32\nsamples = 3\nvalue = [0, 0, 0, 0, 0, 0, 1, 4, 0, 0, 0, 0, 0, 0\n0, 0, 0, 0, 0, 0, 0, 0]", fillcolor="#6aec93"] ;
481 -> 482 ;
483 [label="gini = 0.5\nsamples = 2\nvalue = [0, 0, 0, 0, 0, 0, 1, 1, 0, 0, 0, 0, 0, 0\n0, 0, 0, 0, 0, 0, 0, 0]", fillcolor="#ffffff"] ;
482 -> 483 ;
484 [label="gini = 0.0\nsamples = 1\nvalue = [0, 0, 0, 0, 0, 0, 0, 3, 0, 0, 0, 0, 0, 0\n0, 0, 0, 0, 0, 0, 0, 0]", fillcolor="#39e56f"] ;
482 -> 484 ;
485 [label="grid <= -0.11\ngini = 0.63\nsamples = 6\nvalue = [0, 0, 0, 0, 0, 0, 0, 2, 0, 0, 2, 6, 0, 0\n1, 0, 0, 0, 0, 0, 0, 0]", fillcolor="#a7d5f3"] ;
481 -> 485 ;
486 [label="gini = 0.0\nsamples = 1\nvalue = [0, 0, 0, 0, 0, 0, 0, 2, 0, 0, 0, 0, 0, 0\n0, 0, 0, 0, 0, 0, 0, 0]", fillcolor="#39e56f"] ;
485 -> 486 ;
487 [label="gini = 0.49\nsamples = 5\nvalue = [0, 0, 0, 0, 0, 0, 0, 0, 0, 0, 2, 6, 0, 0\n1, 0, 0, 0, 0, 0, 0, 0]", fillcolor="#8ec9f0"] ;
485 -> 487 ;
488 [label="precipitation <= -0.27\ngini = 0.87\nsamples = 31\nvalue = [0, 0, 0, 0, 0, 2, 8, 3, 6, 6, 7, 8, 2, 2\n3, 0, 0, 0, 0, 0, 0, 0]", fillcolor="#ffffff"] ;
480 -> 488 ;
489 [label="constructorId <= 1.16\ngini = 0.88\nsamples = 24\nvalue = [0, 0, 0, 0, 0, 2, 4, 2, 5, 6, 6, 6, 2, 1\n3, 0, 0, 0, 0, 0, 0, 0]", fillcolor="#ffffff"] ;
488 -> 489 ;
490 [label="gini = 0.87\nsamples = 20\nvalue = [0, 0, 0, 0, 0, 2, 4, 2, 5, 2, 2, 6, 2, 1\n3, 0, 0, 0, 0, 0, 0, 0]", fillcolor="#f7fbfe"] ;
489 -> 490 ;
491 [label="gini = 0.5\nsamples = 4\nvalue = [0, 0, 0, 0, 0, 0, 0, 0, 0, 4, 4, 0, 0, 0\n0, 0, 0, 0, 0, 0, 0, 0]", fillcolor="#ffffff"] ;
489 -> 491 ;
492 [label="constructorId <= -0.71\ngini = 0.76\nsamples = 7\nvalue = [0, 0, 0, 0, 0, 0, 4, 1, 1, 0, 1, 2, 0, 1\n0, 0, 0, 0, 0, 0, 0, 0]", fillcolor="#cef8d0"] ;
488 -> 492 ;
493 [label="gini = 0.5\nsamples = 2\nvalue = [0, 0, 0, 0, 0, 0, 0, 0, 1, 0, 1, 0, 0, 0\n0, 0, 0, 0, 0, 0, 0, 0]", fillcolor="#ffffff"] ;
492 -> 493 ;
494 [label="gini = 0.66\nsamples = 5\nvalue = [0, 0, 0, 0, 0, 0, 4, 1, 0, 0, 0, 2, 0, 1\n0, 0, 0, 0, 0, 0, 0, 0]", fillcolor="#bdf6c0"] ;
492 -> 494 ;
495 [label="grid <= 1.05\ngini = 0.89\nsamples = 208\nvalue = [0, 0, 0, 0, 0, 1, 3, 5, 6, 14, 37, 34, 39\n56, 46, 31, 37, 7, 3, 4, 6, 1]", fillcolor="#f8f8fe"] ;
463 -> 495 ;
496 [label="circuitId <= -0.49\ngini = 0.86\nsamples = 80\nvalue = [0, 0, 0, 0, 0, 1, 0, 3, 0, 5, 24, 16, 10, 28\n8, 17, 11, 2, 0, 0, 3, 0]", fillcolor="#f7f8fe"] ;
495 -> 496 ;
497 [label="raceId <= 0.98\ngini = 0.81\nsamples = 34\nvalue = [0, 0, 0, 0, 0, 0, 0, 1, 0, 1, 16, 7, 4, 11\n1, 14, 4, 0, 0, 0, 0, 0]", fillcolor="#f6fdfe"] ;
496 -> 497 ;
498 [label="driverId <= 0.66\ngini = 0.81\nsamples = 28\nvalue = [0, 0, 0, 0, 0, 0, 0, 1, 0, 1, 8, 7, 2, 8\n1, 14, 4, 0, 0, 0, 0, 0]", fillcolor="#ede0fb"] ;
497 -> 498 ;
499 [label="gini = 0.81\nsamples = 25\nvalue = [0, 0, 0, 0, 0, 0, 0, 1, 0, 1, 8, 7, 2, 5\n1, 14, 4, 0, 0, 0, 0, 0]", fillcolor="#ecddfb"] ;
498 -> 499 ;
500 [label="gini = 0.0\nsamples = 3\nvalue = [0, 0, 0, 0, 0, 0, 0, 0, 0, 0, 0, 0, 0, 3\n0, 0, 0, 0, 0, 0, 0, 0]", fillcolor="#3941e5"] ;
498 -> 500 ;
501 [label="constructorId <= 1.17\ngini = 0.54\nsamples = 6\nvalue = [0, 0, 0, 0, 0, 0, 0, 0, 0, 0, 8, 0, 2, 3\n0, 0, 0, 0, 0, 0, 0, 0]", fillcolor="#9ce6f2"] ;
497 -> 501 ;
502 [label="gini = 0.32\nsamples = 5\nvalue = [0, 0, 0, 0, 0, 0, 0, 0, 0, 0, 8, 0, 2, 0\n0, 0, 0, 0, 0, 0, 0, 0]", fillcolor="#6adaec"] ;
501 -> 502 ;
503 [label="gini = 0.0\nsamples = 1\nvalue = [0, 0, 0, 0, 0, 0, 0, 0, 0, 0, 0, 0, 0, 3\n0, 0, 0, 0, 0, 0, 0, 0]", fillcolor="#3941e5"] ;
501 -> 503 ;
504 [label="statusId <= -0.25\ngini = 0.87\nsamples = 46\nvalue = [0, 0, 0, 0, 0, 1, 0, 2, 0, 4, 8, 9, 6, 17\n7, 3, 7, 2, 0, 0, 3, 0]", fillcolor="#e5e6fc"] ;
496 -> 504 ;
505 [label="gini = 0.0\nsamples = 1\nvalue = [0, 0, 0, 0, 0, 0, 0, 0, 0, 0, 0, 0, 0, 0\n0, 0, 0, 0, 0, 0, 3, 0]", fillcolor="#e53950"] ;
504 -> 505 ;
506 [label="statusId <= 0.18\ngini = 0.86\nsamples = 45\nvalue = [0, 0, 0, 0, 0, 1, 0, 2, 0, 4, 8, 9, 6, 17\n7, 3, 7, 2, 0, 0, 0, 0]", fillcolor="#e3e4fb"] ;
504 -> 506 ;
507 [label="gini = 0.0\nsamples = 1\nvalue = [0, 0, 0, 0, 0, 0, 0, 0, 0, 0, 0, 0, 0, 0\n0, 0, 0, 2, 0, 0, 0, 0]", fillcolor="#e539dc"] ;
506 -> 507 ;
508 [label="gini = 0.85\nsamples = 44\nvalue = [0, 0, 0, 0, 0, 1, 0, 2, 0, 4, 8, 9, 6, 17\n7, 3, 7, 0, 0, 0, 0, 0]", fillcolor="#e2e3fb"] ;
506 -> 508 ;
509 [label="constructorId <= -0.73\ngini = 0.89\nsamples = 128\nvalue = [0, 0, 0, 0, 0, 0, 3, 2, 6, 9, 13, 18, 29, 28\n38, 14, 26, 5, 3, 4, 3, 1]", fillcolor="#f7f5fe"] ;
495 -> 509 ;
510 [label="precipitation <= -0.47\ngini = 0.83\nsamples = 31\nvalue = [0, 0, 0, 0, 0, 0, 3, 1, 1, 2, 2, 9, 2, 14\n7, 0, 7, 0, 0, 0, 0, 1]", fillcolor="#e6e7fc"] ;
509 -> 510 ;
511 [label="grid <= 1.22\ngini = 0.55\nsamples = 7\nvalue = [0, 0, 0, 0, 0, 0, 0, 0, 0, 0, 1, 1, 0, 2\n0, 0, 7, 0, 0, 0, 0, 0]", fillcolor="#da91f1"] ;
510 -> 511 ;
512 [label="gini = 0.44\nsamples = 2\nvalue = [0, 0, 0, 0, 0, 0, 0, 0, 0, 0, 1, 0, 0, 2\n0, 0, 0, 0, 0, 0, 0, 0]", fillcolor="#9ca0f2"] ;
511 -> 512 ;
513 [label="gini = 0.22\nsamples = 5\nvalue = [0, 0, 0, 0, 0, 0, 0, 0, 0, 0, 0, 1, 0, 0\n0, 0, 7, 0, 0, 0, 0, 0]", fillcolor="#c655e9"] ;
511 -> 513 ;
514 [label="grid <= 1.55\ngini = 0.81\nsamples = 24\nvalue = [0, 0, 0, 0, 0, 0, 3, 1, 1, 2, 1, 8, 2, 12\n7, 0, 0, 0, 0, 0, 0, 1]", fillcolor="#e5e6fc"] ;
510 -> 514 ;
515 [label="gini = 0.83\nsamples = 18\nvalue = [0, 0, 0, 0, 0, 0, 3, 1, 1, 2, 1, 7, 1, 4\n7, 0, 0, 0, 0, 0, 0, 1]", fillcolor="#ffffff"] ;
514 -> 515 ;
516 [label="gini = 0.34\nsamples = 6\nvalue = [0, 0, 0, 0, 0, 0, 0, 0, 0, 0, 0, 1, 1, 8\n0, 0, 0, 0, 0, 0, 0, 0]", fillcolor="#656beb"] ;
514 -> 516 ;
517 [label="temp <= -1.39\ngini = 0.88\nsamples = 97\nvalue = [0, 0, 0, 0, 0, 0, 0, 1, 5, 7, 11, 9, 27, 14\n31, 14, 19, 5, 3, 4, 3, 0]", fillcolor="#faf9fe"] ;
509 -> 517 ;
518 [label="raceId <= -0.59\ngini = 0.78\nsamples = 7\nvalue = [0, 0, 0, 0, 0, 0, 0, 0, 0, 3, 1, 0, 0, 0\n0, 1, 0, 1, 3, 1, 0, 0]", fillcolor="#ffffff"] ;
517 -> 518 ;
519 [label="gini = 0.73\nsamples = 5\nvalue = [0, 0, 0, 0, 0, 0, 0, 0, 0, 1, 0, 0, 0, 0\n0, 1, 0, 1, 3, 1, 0, 0]", fillcolor="#f6bde4"] ;
518 -> 519 ;
520 [label="gini = 0.44\nsamples = 2\nvalue = [0, 0, 0, 0, 0, 0, 0, 0, 0, 2, 1, 0, 0, 0\n0, 0, 0, 0, 0, 0, 0, 0]", fillcolor="#9cf2e6"] ;
518 -> 520 ;
521 [label="constructorId <= -0.39\ngini = 0.87\nsamples = 90\nvalue = [0, 0, 0, 0, 0, 0, 0, 1, 5, 4, 10, 9, 27, 14\n31, 13, 19, 4, 0, 3, 3, 0]", fillcolor="#faf8fe"] ;
517 -> 521 ;
522 [label="gini = 0.81\nsamples = 39\nvalue = [0, 0, 0, 0, 0, 0, 0, 0, 5, 1, 5, 3, 15, 8\n19, 2, 4, 0, 0, 0, 0, 0]", fillcolor="#f2eefd"] ;
521 -> 522 ;
523 [label="gini = 0.88\nsamples = 51\nvalue = [0, 0, 0, 0, 0, 0, 0, 1, 0, 3, 5, 6, 12, 6\n12, 11, 15, 4, 0, 3, 3, 0]", fillcolor="#fcf6fe"] ;
521 -> 523 ;
524 [label="circuitId <= 2.06\ngini = 0.76\nsamples = 20\nvalue = [0, 0, 0, 0, 0, 0, 0, 1, 1, 0, 0, 4, 12, 3\n4, 2, 1, 0, 0, 0, 0, 0]", fillcolor="#bdcff6"] ;
462 -> 524 ;
525 [label="raceId <= 1.36\ngini = 0.72\nsamples = 18\nvalue = [0, 0, 0, 0, 0, 0, 0, 1, 1, 0, 0, 2, 12, 3\n3, 2, 1, 0, 0, 0, 0, 0]", fillcolor="#aec4f4"] ;
524 -> 525 ;
526 [label="constructorId <= 1.17\ngini = 0.7\nsamples = 17\nvalue = [0, 0, 0, 0, 0, 0, 0, 1, 1, 0, 0, 1, 12, 3\n3, 2, 1, 0, 0, 0, 0, 0]", fillcolor="#aac1f4"] ;
525 -> 526 ;
527 [label="grid <= 0.05\ngini = 0.84\nsamples = 12\nvalue = [0, 0, 0, 0, 0, 0, 0, 1, 1, 0, 0, 1, 3, 3\n3, 1, 1, 0, 0, 0, 0, 0]", fillcolor="#ffffff"] ;
526 -> 527 ;
528 [label="precipitation <= -0.32\ngini = 0.38\nsamples = 3\nvalue = [0, 0, 0, 0, 0, 0, 0, 0, 1, 0, 0, 0, 3, 0\n0, 0, 0, 0, 0, 0, 0, 0]", fillcolor="#7b9fee"] ;
527 -> 528 ;
529 [label="gini = 0.0\nsamples = 1\nvalue = [0, 0, 0, 0, 0, 0, 0, 0, 0, 0, 0, 0, 1, 0\n0, 0, 0, 0, 0, 0, 0, 0]", fillcolor="#396fe5"] ;
528 -> 529 ;
530 [label="gini = 0.44\nsamples = 2\nvalue = [0, 0, 0, 0, 0, 0, 0, 0, 1, 0, 0, 0, 2, 0\n0, 0, 0, 0, 0, 0, 0, 0]", fillcolor="#9cb7f2"] ;
528 -> 530 ;
531 [label="temp <= 0.41\ngini = 0.78\nsamples = 9\nvalue = [0, 0, 0, 0, 0, 0, 0, 1, 0, 0, 0, 1, 0, 3\n3, 1, 1, 0, 0, 0, 0, 0]", fillcolor="#ffffff"] ;
527 -> 531 ;
532 [label="gini = 0.72\nsamples = 5\nvalue = [0, 0, 0, 0, 0, 0, 0, 1, 0, 0, 0, 1, 0, 2\n0, 1, 0, 0, 0, 0, 0, 0]", fillcolor="#ced0f8"] ;
531 -> 532 ;
533 [label="gini = 0.56\nsamples = 4\nvalue = [0, 0, 0, 0, 0, 0, 0, 0, 0, 0, 0, 0, 0, 1\n3, 0, 1, 0, 0, 0, 0, 0]", fillcolor="#b09cf2"] ;
531 -> 533 ;
534 [label="grid <= 0.55\ngini = 0.18\nsamples = 5\nvalue = [0, 0, 0, 0, 0, 0, 0, 0, 0, 0, 0, 0, 9, 0\n0, 1, 0, 0, 0, 0, 0, 0]", fillcolor="#4f7fe8"] ;
526 -> 534 ;
535 [label="gini = 0.0\nsamples = 3\nvalue = [0, 0, 0, 0, 0, 0, 0, 0, 0, 0, 0, 0, 7, 0\n0, 0, 0, 0, 0, 0, 0, 0]", fillcolor="#396fe5"] ;
534 -> 535 ;
536 [label="driverId <= -0.31\ngini = 0.44\nsamples = 2\nvalue = [0, 0, 0, 0, 0, 0, 0, 0, 0, 0, 0, 0, 2, 0\n0, 1, 0, 0, 0, 0, 0, 0]", fillcolor="#9cb7f2"] ;
534 -> 536 ;
537 [label="gini = 0.0\nsamples = 1\nvalue = [0, 0, 0, 0, 0, 0, 0, 0, 0, 0, 0, 0, 2, 0\n0, 0, 0, 0, 0, 0, 0, 0]", fillcolor="#396fe5"] ;
536 -> 537 ;
538 [label="gini = 0.0\nsamples = 1\nvalue = [0, 0, 0, 0, 0, 0, 0, 0, 0, 0, 0, 0, 0, 0\n0, 1, 0, 0, 0, 0, 0, 0]", fillcolor="#8f39e5"] ;
536 -> 538 ;
539 [label="gini = 0.0\nsamples = 1\nvalue = [0, 0, 0, 0, 0, 0, 0, 0, 0, 0, 0, 1, 0, 0\n0, 0, 0, 0, 0, 0, 0, 0]", fillcolor="#39a0e5"] ;
525 -> 539 ;
540 [label="grid <= 0.97\ngini = 0.44\nsamples = 2\nvalue = [0, 0, 0, 0, 0, 0, 0, 0, 0, 0, 0, 2, 0, 0\n1, 0, 0, 0, 0, 0, 0, 0]", fillcolor="#9cd0f2"] ;
524 -> 540 ;
541 [label="gini = 0.0\nsamples = 1\nvalue = [0, 0, 0, 0, 0, 0, 0, 0, 0, 0, 0, 2, 0, 0\n0, 0, 0, 0, 0, 0, 0, 0]", fillcolor="#39a0e5"] ;
540 -> 541 ;
542 [label="gini = 0.0\nsamples = 1\nvalue = [0, 0, 0, 0, 0, 0, 0, 0, 0, 0, 0, 0, 0, 0\n1, 0, 0, 0, 0, 0, 0, 0]", fillcolor="#6139e5"] ;
540 -> 542 ;
543 [label="grid <= 0.89\ngini = 0.88\nsamples = 106\nvalue = [0, 0, 0, 0, 0, 0, 2, 2, 0, 0, 3, 7, 10, 9\n24, 26, 26, 25, 14, 6, 3, 0]", fillcolor="#ffffff"] ;
461 -> 543 ;
544 [label="constructorId <= 1.16\ngini = 0.87\nsamples = 36\nvalue = [0, 0, 0, 0, 0, 0, 2, 2, 0, 0, 0, 4, 6, 6\n2, 9, 10, 2, 4, 1, 0, 0]", fillcolor="#fdfafe"] ;
543 -> 544 ;
545 [label="raceId <= -0.09\ngini = 0.86\nsamples = 30\nvalue = [0, 0, 0, 0, 0, 0, 2, 2, 0, 0, 0, 4, 2, 6\n1, 9, 7, 2, 4, 1, 0, 0]", fillcolor="#f8f3fd"] ;
544 -> 545 ;
546 [label="raceId <= -0.48\ngini = 0.81\nsamples = 17\nvalue = [0, 0, 0, 0, 0, 0, 0, 0, 0, 0, 0, 3, 2, 2\n1, 8, 2, 0, 4, 1, 0, 0]", fillcolor="#e7d5fa"] ;
545 -> 546 ;
547 [label="temp <= -0.02\ngini = 0.83\nsamples = 11\nvalue = [0, 0, 0, 0, 0, 0, 0, 0, 0, 0, 0, 3, 2, 2\n1, 3, 1, 0, 4, 0, 0, 0]", fillcolor="#fdf0f9"] ;
546 -> 547 ;
548 [label="precipitation <= 3.98\ngini = 0.61\nsamples = 5\nvalue = [0, 0, 0, 0, 0, 0, 0, 0, 0, 0, 0, 3, 2, 0\n1, 0, 0, 0, 0, 0, 0, 0]", fillcolor="#cee7f8"] ;
547 -> 548 ;
549 [label="gini = 0.48\nsamples = 4\nvalue = [0, 0, 0, 0, 0, 0, 0, 0, 0, 0, 0, 3, 2, 0\n0, 0, 0, 0, 0, 0, 0, 0]", fillcolor="#bddff6"] ;
548 -> 549 ;
550 [label="gini = 0.0\nsamples = 1\nvalue = [0, 0, 0, 0, 0, 0, 0, 0, 0, 0, 0, 0, 0, 0\n1, 0, 0, 0, 0, 0, 0, 0]", fillcolor="#6139e5"] ;
548 -> 550 ;
551 [label="circuitId <= -0.39\ngini = 0.7\nsamples = 6\nvalue = [0, 0, 0, 0, 0, 0, 0, 0, 0, 0, 0, 0, 0, 2\n0, 3, 1, 0, 4, 0, 0, 0]", fillcolor="#fbe3f3"] ;
547 -> 551 ;
552 [label="gini = 0.44\nsamples = 4\nvalue = [0, 0, 0, 0, 0, 0, 0, 0, 0, 0, 0, 0, 0, 2\n0, 0, 0, 0, 4, 0, 0, 0]", fillcolor="#f29cd6"] ;
551 -> 552 ;
553 [label="gini = 0.38\nsamples = 2\nvalue = [0, 0, 0, 0, 0, 0, 0, 0, 0, 0, 0, 0, 0, 0\n0, 3, 1, 0, 0, 0, 0, 0]", fillcolor="#b47bee"] ;
551 -> 553 ;
554 [label="temp <= -1.33\ngini = 0.45\nsamples = 6\nvalue = [0, 0, 0, 0, 0, 0, 0, 0, 0, 0, 0, 0, 0, 0\n0, 5, 1, 0, 0, 1, 0, 0]", fillcolor="#b47bee"] ;
546 -> 554 ;
555 [label="gini = 0.0\nsamples = 1\nvalue = [0, 0, 0, 0, 0, 0, 0, 0, 0, 0, 0, 0, 0, 0\n0, 0, 0, 0, 0, 1, 0, 0]", fillcolor="#e53981"] ;
554 -> 555 ;
556 [label="temp <= 1.16\ngini = 0.28\nsamples = 5\nvalue = [0, 0, 0, 0, 0, 0, 0, 0, 0, 0, 0, 0, 0, 0\n0, 5, 1, 0, 0, 0, 0, 0]", fillcolor="#a561ea"] ;
554 -> 556 ;
557 [label="gini = 0.0\nsamples = 4\nvalue = [0, 0, 0, 0, 0, 0, 0, 0, 0, 0, 0, 0, 0, 0\n0, 5, 0, 0, 0, 0, 0, 0]", fillcolor="#8f39e5"] ;
556 -> 557 ;
558 [label="gini = 0.0\nsamples = 1\nvalue = [0, 0, 0, 0, 0, 0, 0, 0, 0, 0, 0, 0, 0, 0\n0, 0, 1, 0, 0, 0, 0, 0]", fillcolor="#bd39e5"] ;
556 -> 558 ;
559 [label="temp <= -1.11\ngini = 0.81\nsamples = 13\nvalue = [0, 0, 0, 0, 0, 0, 2, 2, 0, 0, 0, 1, 0, 4\n0, 1, 5, 2, 0, 0, 0, 0]", fillcolor="#faf0fd"] ;
545 -> 559 ;
560 [label="constructorId <= -0.69\ngini = 0.5\nsamples = 2\nvalue = [0, 0, 0, 0, 0, 0, 2, 2, 0, 0, 0, 0, 0, 0\n0, 0, 0, 0, 0, 0, 0, 0]", fillcolor="#ffffff"] ;
559 -> 560 ;
561 [label="gini = 0.0\nsamples = 1\nvalue = [0, 0, 0, 0, 0, 0, 0, 2, 0, 0, 0, 0, 0, 0\n0, 0, 0, 0, 0, 0, 0, 0]", fillcolor="#39e56f"] ;
560 -> 561 ;
562 [label="gini = 0.0\nsamples = 1\nvalue = [0, 0, 0, 0, 0, 0, 2, 0, 0, 0, 0, 0, 0, 0\n0, 0, 0, 0, 0, 0, 0, 0]", fillcolor="#39e541"] ;
560 -> 562 ;
563 [label="constructorId <= -0.73\ngini = 0.72\nsamples = 11\nvalue = [0, 0, 0, 0, 0, 0, 0, 0, 0, 0, 0, 1, 0, 4\n0, 1, 5, 2, 0, 0, 0, 0]", fillcolor="#f8e9fc"] ;
559 -> 563 ;
564 [label="precipitation <= -0.46\ngini = 0.57\nsamples = 7\nvalue = [0, 0, 0, 0, 0, 0, 0, 0, 0, 0, 0, 0, 0, 3\n0, 1, 5, 0, 0, 0, 0, 0]", fillcolor="#e9bdf6"] ;
563 -> 564 ;
565 [label="gini = 0.38\nsamples = 3\nvalue = [0, 0, 0, 0, 0, 0, 0, 0, 0, 0, 0, 0, 0, 3\n0, 0, 1, 0, 0, 0, 0, 0]", fillcolor="#7b80ee"] ;
564 -> 565 ;
566 [label="gini = 0.32\nsamples = 4\nvalue = [0, 0, 0, 0, 0, 0, 0, 0, 0, 0, 0, 0, 0, 0\n0, 1, 4, 0, 0, 0, 0, 0]", fillcolor="#ce6aec"] ;
564 -> 566 ;
567 [label="grid <= 0.22\ngini = 0.62\nsamples = 4\nvalue = [0, 0, 0, 0, 0, 0, 0, 0, 0, 0, 0, 1, 0, 1\n0, 0, 0, 2, 0, 0, 0, 0]", fillcolor="#f6bdf3"] ;
563 -> 567 ;
568 [label="gini = 0.44\nsamples = 3\nvalue = [0, 0, 0, 0, 0, 0, 0, 0, 0, 0, 0, 0, 0, 1\n0, 0, 0, 2, 0, 0, 0, 0]", fillcolor="#f29cee"] ;
567 -> 568 ;
569 [label="gini = 0.0\nsamples = 1\nvalue = [0, 0, 0, 0, 0, 0, 0, 0, 0, 0, 0, 1, 0, 0\n0, 0, 0, 0, 0, 0, 0, 0]", fillcolor="#39a0e5"] ;
567 -> 569 ;
570 [label="circuitId <= -0.79\ngini = 0.59\nsamples = 6\nvalue = [0, 0, 0, 0, 0, 0, 0, 0, 0, 0, 0, 0, 4, 0\n1, 0, 3, 0, 0, 0, 0, 0]", fillcolor="#d7e2fa"] ;
544 -> 570 ;
571 [label="gini = 0.0\nsamples = 2\nvalue = [0, 0, 0, 0, 0, 0, 0, 0, 0, 0, 0, 0, 0, 0\n0, 0, 2, 0, 0, 0, 0, 0]", fillcolor="#bd39e5"] ;
570 -> 571 ;
572 [label="raceId <= -1.13\ngini = 0.5\nsamples = 4\nvalue = [0, 0, 0, 0, 0, 0, 0, 0, 0, 0, 0, 0, 4, 0\n1, 0, 1, 0, 0, 0, 0, 0]", fillcolor="#88a9ef"] ;
570 -> 572 ;
573 [label="grid <= 0.55\ngini = 0.5\nsamples = 2\nvalue = [0, 0, 0, 0, 0, 0, 0, 0, 0, 0, 0, 0, 0, 0\n1, 0, 1, 0, 0, 0, 0, 0]", fillcolor="#ffffff"] ;
572 -> 573 ;
574 [label="gini = 0.0\nsamples = 1\nvalue = [0, 0, 0, 0, 0, 0, 0, 0, 0, 0, 0, 0, 0, 0\n1, 0, 0, 0, 0, 0, 0, 0]", fillcolor="#6139e5"] ;
573 -> 574 ;
575 [label="gini = 0.0\nsamples = 1\nvalue = [0, 0, 0, 0, 0, 0, 0, 0, 0, 0, 0, 0, 0, 0\n0, 0, 1, 0, 0, 0, 0, 0]", fillcolor="#bd39e5"] ;
573 -> 575 ;
576 [label="gini = 0.0\nsamples = 2\nvalue = [0, 0, 0, 0, 0, 0, 0, 0, 0, 0, 0, 0, 4, 0\n0, 0, 0, 0, 0, 0, 0, 0]", fillcolor="#396fe5"] ;
572 -> 576 ;
577 [label="constructorId <= -0.76\ngini = 0.85\nsamples = 70\nvalue = [0, 0, 0, 0, 0, 0, 0, 0, 0, 0, 3, 3, 4, 3\n22, 17, 16, 23, 10, 5, 3, 0]", fillcolor="#fffdff"] ;
543 -> 577 ;
578 [label="grid <= 1.05\ngini = 0.32\nsamples = 3\nvalue = [0, 0, 0, 0, 0, 0, 0, 0, 0, 0, 0, 0, 0, 0\n0, 0, 4, 1, 0, 0, 0, 0]", fillcolor="#ce6aec"] ;
577 -> 578 ;
579 [label="raceId <= -1.07\ngini = 0.44\nsamples = 2\nvalue = [0, 0, 0, 0, 0, 0, 0, 0, 0, 0, 0, 0, 0, 0\n0, 0, 2, 1, 0, 0, 0, 0]", fillcolor="#de9cf2"] ;
578 -> 579 ;
580 [label="gini = 0.0\nsamples = 1\nvalue = [0, 0, 0, 0, 0, 0, 0, 0, 0, 0, 0, 0, 0, 0\n0, 0, 0, 1, 0, 0, 0, 0]", fillcolor="#e539dc"] ;
579 -> 580 ;
581 [label="gini = 0.0\nsamples = 1\nvalue = [0, 0, 0, 0, 0, 0, 0, 0, 0, 0, 0, 0, 0, 0\n0, 0, 2, 0, 0, 0, 0, 0]", fillcolor="#bd39e5"] ;
579 -> 581 ;
582 [label="gini = 0.0\nsamples = 1\nvalue = [0, 0, 0, 0, 0, 0, 0, 0, 0, 0, 0, 0, 0, 0\n0, 0, 2, 0, 0, 0, 0, 0]", fillcolor="#bd39e5"] ;
578 -> 582 ;
583 [label="precipitation <= -0.47\ngini = 0.85\nsamples = 67\nvalue = [0, 0, 0, 0, 0, 0, 0, 0, 0, 0, 3, 3, 4, 3\n22, 17, 12, 22, 10, 5, 3, 0]", fillcolor="#ffffff"] ;
577 -> 583 ;
584 [label="driverId <= 0.62\ngini = 0.79\nsamples = 23\nvalue = [0, 0, 0, 0, 0, 0, 0, 0, 0, 0, 3, 0, 0, 1\n9, 5, 5, 15, 3, 1, 0, 0]", fillcolor="#fadbf9"] ;
583 -> 584 ;
585 [label="raceId <= -0.45\ngini = 0.76\nsamples = 7\nvalue = [0, 0, 0, 0, 0, 0, 0, 0, 0, 0, 3, 0, 0, 0\n2, 1, 0, 0, 3, 1, 0, 0]", fillcolor="#ffffff"] ;
584 -> 585 ;
586 [label="gini = 0.0\nsamples = 1\nvalue = [0, 0, 0, 0, 0, 0, 0, 0, 0, 0, 3, 0, 0, 0\n0, 0, 0, 0, 0, 0, 0, 0]", fillcolor="#39cee5"] ;
585 -> 586 ;
587 [label="raceId <= 0.33\ngini = 0.69\nsamples = 6\nvalue = [0, 0, 0, 0, 0, 0, 0, 0, 0, 0, 0, 0, 0, 0\n2, 1, 0, 0, 3, 1, 0, 0]", fillcolor="#fad7ef"] ;
585 -> 587 ;
588 [label="gini = 0.67\nsamples = 3\nvalue = [0, 0, 0, 0, 0, 0, 0, 0, 0, 0, 0, 0, 0, 0\n1, 1, 0, 0, 0, 1, 0, 0]", fillcolor="#ffffff"] ;
587 -> 588 ;
589 [label="gini = 0.38\nsamples = 3\nvalue = [0, 0, 0, 0, 0, 0, 0, 0, 0, 0, 0, 0, 0, 0\n1, 0, 0, 0, 3, 0, 0, 0]", fillcolor="#ee7bc9"] ;
587 -> 589 ;
590 [label="statusId <= 1.36\ngini = 0.69\nsamples = 16\nvalue = [0, 0, 0, 0, 0, 0, 0, 0, 0, 0, 0, 0, 0, 1\n7, 4, 5, 15, 0, 0, 0, 0]", fillcolor="#f7c0f4"] ;
584 -> 590 ;
591 [label="raceId <= -0.62\ngini = 0.66\nsamples = 15\nvalue = [0, 0, 0, 0, 0, 0, 0, 0, 0, 0, 0, 0, 0, 1\n4, 4, 5, 15, 0, 0, 0, 0]", fillcolor="#f4acf0"] ;
590 -> 591 ;
592 [label="gini = 0.14\nsamples = 5\nvalue = [0, 0, 0, 0, 0, 0, 0, 0, 0, 0, 0, 0, 0, 0\n0, 0, 1, 12, 0, 0, 0, 0]", fillcolor="#e749df"] ;
591 -> 592 ;
593 [label="gini = 0.77\nsamples = 10\nvalue = [0, 0, 0, 0, 0, 0, 0, 0, 0, 0, 0, 0, 0, 1\n4, 4, 4, 3, 0, 0, 0, 0]", fillcolor="#ffffff"] ;
591 -> 593 ;
594 [label="gini = 0.0\nsamples = 1\nvalue = [0, 0, 0, 0, 0, 0, 0, 0, 0, 0, 0, 0, 0, 0\n3, 0, 0, 0, 0, 0, 0, 0]", fillcolor="#6139e5"] ;
590 -> 594 ;
595 [label="raceId <= -0.07\ngini = 0.87\nsamples = 44\nvalue = [0, 0, 0, 0, 0, 0, 0, 0, 0, 0, 0, 3, 4, 2\n13, 12, 7, 7, 7, 4, 3, 0]", fillcolor="#fcfbfe"] ;
583 -> 595 ;
596 [label="grid <= 1.38\ngini = 0.86\nsamples = 33\nvalue = [0, 0, 0, 0, 0, 0, 0, 0, 0, 0, 0, 2, 4, 2\n12, 3, 7, 6, 5, 4, 3, 0]", fillcolor="#ece7fc"] ;
595 -> 596 ;
597 [label="driverId <= -0.51\ngini = 0.79\nsamples = 12\nvalue = [0, 0, 0, 0, 0, 0, 0, 0, 0, 0, 0, 0, 1, 2\n1, 0, 4, 4, 2, 0, 0, 0]", fillcolor="#ffffff"] ;
596 -> 597 ;
598 [label="gini = 0.0\nsamples = 1\nvalue = [0, 0, 0, 0, 0, 0, 0, 0, 0, 0, 0, 0, 0, 0\n0, 0, 0, 3, 0, 0, 0, 0]", fillcolor="#e539dc"] ;
597 -> 598 ;
599 [label="gini = 0.78\nsamples = 11\nvalue = [0, 0, 0, 0, 0, 0, 0, 0, 0, 0, 0, 0, 1, 2\n1, 0, 4, 1, 2, 0, 0, 0]", fillcolor="#f0d3f9"] ;
597 -> 599 ;
600 [label="raceId <= -0.81\ngini = 0.84\nsamples = 21\nvalue = [0, 0, 0, 0, 0, 0, 0, 0, 0, 0, 0, 2, 3, 0\n11, 3, 3, 2, 3, 4, 3, 0]", fillcolor="#dad1f9"] ;
596 -> 600 ;
601 [label="gini = 0.78\nsamples = 15\nvalue = [0, 0, 0, 0, 0, 0, 0, 0, 0, 0, 0, 1, 3, 0\n9, 3, 3, 1, 3, 0, 0, 0]", fillcolor="#d0c4f7"] ;
600 -> 601 ;
602 [label="gini = 0.74\nsamples = 6\nvalue = [0, 0, 0, 0, 0, 0, 0, 0, 0, 0, 0, 1, 0, 0\n2, 0, 0, 1, 0, 4, 3, 0]", fillcolor="#fce6ef"] ;
600 -> 602 ;
603 [label="temp <= 1.77\ngini = 0.55\nsamples = 11\nvalue = [0, 0, 0, 0, 0, 0, 0, 0, 0, 0, 0, 1, 0, 0\n1, 9, 0, 1, 2, 0, 0, 0]", fillcolor="#be8cf0"] ;
595 -> 603 ;
604 [label="temp <= -0.39\ngini = 0.5\nsamples = 10\nvalue = [0, 0, 0, 0, 0, 0, 0, 0, 0, 0, 0, 1, 0, 0\n1, 9, 0, 1, 1, 0, 0, 0]", fillcolor="#b47bee"] ;
603 -> 604 ;
605 [label="gini = 0.69\nsamples = 6\nvalue = [0, 0, 0, 0, 0, 0, 0, 0, 0, 0, 0, 1, 0, 0\n1, 4, 0, 1, 1, 0, 0, 0]", fillcolor="#cfaaf4"] ;
604 -> 605 ;
606 [label="gini = 0.0\nsamples = 4\nvalue = [0, 0, 0, 0, 0, 0, 0, 0, 0, 0, 0, 0, 0, 0\n0, 5, 0, 0, 0, 0, 0, 0]", fillcolor="#8f39e5"] ;
604 -> 606 ;
607 [label="gini = 0.0\nsamples = 1\nvalue = [0, 0, 0, 0, 0, 0, 0, 0, 0, 0, 0, 0, 0, 0\n0, 0, 0, 0, 1, 0, 0, 0]", fillcolor="#e539ae"] ;
603 -> 607 ;
608 [label="circuitId <= -0.85\ngini = 0.83\nsamples = 54\nvalue = [0, 0, 0, 0, 0, 1, 0, 0, 1, 2, 0, 0, 6, 6\n4, 15, 14, 24, 7, 3, 0, 0]", fillcolor="#fce5fa"] ;
460 -> 608 ;
609 [label="statusId <= 0.61\ngini = 0.64\nsamples = 6\nvalue = [0, 0, 0, 0, 0, 0, 0, 0, 0, 0, 0, 0, 0, 3\n1, 0, 0, 5, 1, 0, 0, 0]", fillcolor="#f8c6f5"] ;
608 -> 609 ;
610 [label="circuitId <= -0.95\ngini = 0.38\nsamples = 3\nvalue = [0, 0, 0, 0, 0, 0, 0, 0, 0, 0, 0, 0, 0, 3\n1, 0, 0, 0, 0, 0, 0, 0]", fillcolor="#7b80ee"] ;
609 -> 610 ;
611 [label="gini = 0.0\nsamples = 1\nvalue = [0, 0, 0, 0, 0, 0, 0, 0, 0, 0, 0, 0, 0, 0\n1, 0, 0, 0, 0, 0, 0, 0]", fillcolor="#6139e5"] ;
610 -> 611 ;
612 [label="gini = 0.0\nsamples = 2\nvalue = [0, 0, 0, 0, 0, 0, 0, 0, 0, 0, 0, 0, 0, 3\n0, 0, 0, 0, 0, 0, 0, 0]", fillcolor="#3941e5"] ;
610 -> 612 ;
613 [label="statusId <= 1.68\ngini = 0.28\nsamples = 3\nvalue = [0, 0, 0, 0, 0, 0, 0, 0, 0, 0, 0, 0, 0, 0\n0, 0, 0, 5, 1, 0, 0, 0]", fillcolor="#ea61e3"] ;
609 -> 613 ;
614 [label="driverId <= 0.69\ngini = 0.44\nsamples = 2\nvalue = [0, 0, 0, 0, 0, 0, 0, 0, 0, 0, 0, 0, 0, 0\n0, 0, 0, 2, 1, 0, 0, 0]", fillcolor="#f29cee"] ;
613 -> 614 ;
615 [label="gini = 0.0\nsamples = 1\nvalue = [0, 0, 0, 0, 0, 0, 0, 0, 0, 0, 0, 0, 0, 0\n0, 0, 0, 2, 0, 0, 0, 0]", fillcolor="#e539dc"] ;
614 -> 615 ;
616 [label="gini = 0.0\nsamples = 1\nvalue = [0, 0, 0, 0, 0, 0, 0, 0, 0, 0, 0, 0, 0, 0\n0, 0, 0, 0, 1, 0, 0, 0]", fillcolor="#e539ae"] ;
614 -> 616 ;
617 [label="gini = 0.0\nsamples = 1\nvalue = [0, 0, 0, 0, 0, 0, 0, 0, 0, 0, 0, 0, 0, 0\n0, 0, 0, 3, 0, 0, 0, 0]", fillcolor="#e539dc"] ;
613 -> 617 ;
618 [label="circuitId <= 0.08\ngini = 0.83\nsamples = 48\nvalue = [0, 0, 0, 0, 0, 1, 0, 0, 1, 2, 0, 0, 6, 3\n3, 15, 14, 19, 6, 3, 0, 0]", fillcolor="#fdf1fd"] ;
608 -> 618 ;
619 [label="raceId <= 1.4\ngini = 0.79\nsamples = 19\nvalue = [0, 0, 0, 0, 0, 0, 0, 0, 0, 0, 0, 0, 1, 1\n2, 6, 8, 2, 3, 1, 0, 0]", fillcolor="#f8e9fc"] ;
618 -> 619 ;
620 [label="grid <= 1.55\ngini = 0.71\nsamples = 13\nvalue = [0, 0, 0, 0, 0, 0, 0, 0, 0, 0, 0, 0, 0, 1\n0, 3, 8, 2, 2, 1, 0, 0]", fillcolor="#e7b8f6"] ;
619 -> 620 ;
